[0.24807934161803047, 0.4494992436983859, -0.08436348689846862, -0.028671133317174784, 0.1752790052525378, 0.10385639514734558, -0.27913304209438716, -0.10580853275564839, -0.22695558356083245, 0.4958505710864547, -0.3744545292734539, 0.30754611478998484, -0.1736613195875333, 0.7191881278430905, -0.42759682117738207, -0.49286661480842076, 0.18416807148727835, 0.03726029070829984, 0.45003779316075576, -0.14392977793250028, 0.42135466549384337, -0.31605736046071375, 0.16457278200150047, -0.05876774812794342, 0.12104289811179969, -0.37326774631768334, 0.19480668025655312, 0.24367415941090087, 0.30732294828476303, 0.11387538271140785, -0.01411166043992107, -0.36894329223984534, -0.05885439162018039, -0.2994780579387102, 0.07069494362133066, -0.2992728967110525, -0.4748861388935135, -0.07617389520229643, 0.09970868440921898, 0.20970574834174416, -0.027171905559885315, 0.37707054119680417, -0.37468455970736825, 0.39897262964208824, -0.677291251017584, 0.01749444454542959, -0.27190031717852703, -0.004147241922095035, 0.37950546996221424, -0.013315081726391509, -0.04142686504060822, -0.3630647674273104, -0.08259985929012537]
[0.24807934161803047, 0.4494992436983859, -0.08436348689846862, -0.0470980810489503, 0.1752790052525378, 0.2961710800172678, -0.27913304209438716, -0.10580853275564839, -0.22695558356083245, 0.4958505710864547, -0.6113499495837551, 0.30754611478998484, 0.29247757379048944, 0.7191881278430905, 0.2547146128229872, -0.49286661480842076, 0.20865817753489058, -0.006699813206156716, 0.45003779316075576, -0.07588161458929392, 0.3127980749581557, -0.31605736046071375, 0.21038615152394324, -0.28398642728268264, 0.12104289811179969, -0.27929002820739884, 0.19480668025655312, -0.18203445790141826, 0.30732294828476303, 0.21173842218006503, 0.017758506897882154, -0.36894329223984534, -0.3321192231686576, -0.2994780579387102, -0.14075301005492072, -0.2992728967110525, -0.4748861388935135, -0.04133717880703691, 0.09970868440921898, 0.20970574834174416, -0.07439083710228382, 0.37707054119680417, 0.2820146583001636, -0.7812435475514499, -0.1363884356836873, 0.01749444454542959, -0.27190031717852703, -0.004147241922095035, 0.37950546996221424, -0.013315081726391509, -0.04142686504060822, -0.35046209820452345, 0.004093141226964285]
[0.24807934161803047, 0.4494992436983859, -0.08436348689846862, -0.0470980810489503, 0.1752790052525378, 0.2961710800172678, -0.27913304209438716, -0.10580853275564839, -0.22695558356083245, 0.4958505710864547, -0.48607519172706465, 0.30754611478998484, 0.29247757379048944, 0.7191881278430905, -0.42759682117738207, -0.49286661480842076, 0.20865817753489058, 0.03726029070829984, 0.45003779316075576, 0.04008839321703571, 0.3127980749581557, -0.31605736046071375, 0.43470273435274387, -0.28398642728268264, 0.12104289811179969, -0.37326774631768334, 0.19480668025655312, 0.019893693434584105, 0.30732294828476303, 0.11387538271140785, -0.01411166043992107, -0.36894329223984534, -0.3321192231686576, -0.2994780579387102, 0.07069494362133066, -0.2992728967110525, -0.4748861388935135, -0.04133717880703691, 0.09970868440921898, 0.20970574834174416, -0.07003238535275025, 0.37707054119680417, 0.2820146583001636, 0.054570013593377494, 0.37342981864601243, 0.03223850701769551, -0.27190031717852703, -0.004147241922095035, 0.37950546996221424, -0.013315081726391509, -0.04142686504060822, -0.3630647674273104, -0.08259985929012537]
[0.24807934161803047, 0.4494992436983859, -0.08436348689846862, 0.04270460336748668, 0.24569663646625894, 0.2961710800172678, -0.27913304209438716, 0.00967393177280178, -0.4282620889969416, 0.4958505710864547, -0.3744545292734539, 0.3551013204730393, 0.29247757379048944, 0.7191881278430905, -0.42759682117738207, -0.6264588408834615, 0.20865817753489058, 0.03726029070829984, 0.45003779316075576, -0.14392977793250028, 0.07679409443396061, -0.31605736046071375, 0.43470273435274387, -0.28398642728268264, 0.12104289811179969, -0.37326774631768334, 0.1585196777346852, -0.18203445790141826, -0.2573766960469062, 0.10222066397203051, -0.01411166043992107, -0.36894329223984534, -0.3321192231686576, -0.2994780579387102, 0.07069494362133066, -0.49887028710732173, -0.4748861388935135, -0.04133717880703691, 0.09970868440921898, 0.20970574834174416, 0.11679764187078982, 0.37707054119680417, 0.060879621966438695, 0.39897262964208824, 0.37342981864601243, 0.01749444454542959, -0.27190031717852703, 0.002990939823680966, 0.37950546996221424, -0.013315081726391509, -0.04142686504060822, -0.35046209820452345, -0.08259985929012537]
[0.24807934161803047, 0.4494992436983859, -0.08436348689846862, -0.0470980810489503, 0.1752790052525378, 0.3352022406679866, -0.27913304209438716, -0.10580853275564839, 0.011984380528476016, 0.4958505710864547, -0.4142382633106573, 0.30754611478998484, 0.29247757379048944, 0.7191881278430905, -0.42759682117738207, -0.49286661480842076, 0.20865817753489058, 0.03726029070829984, -0.030966810964291932, -0.13353970507527552, 0.4019975928688575, -0.31605736046071375, 0.43470273435274387, 0.06066196459647944, -0.1044195562281837, -0.37326774631768334, 0.19480668025655312, -0.18203445790141826, 0.30732294828476303, 0.11387538271140785, -0.023296846672035715, 0.2845669301678868, 0.07778134353465463, -0.2994780579387102, 0.07069494362133066, 0.5356537290982576, -0.4748861388935135, -0.04133717880703691, 0.09970868440921898, 0.20970574834174416, -0.07003238535275025, 0.37707054119680417, -0.37468455970736825, -0.7564760230359737, 0.37342981864601243, 0.0037212325881422923, -0.27190031717852703, 0.000280101437122715, 0.37950546996221424, -0.013315081726391509, -0.04142686504060822, -0.3630647674273104, -0.08259985929012537]
[0.24807934161803047, 0.4494992436983859, -0.08436348689846862, -0.0470980810489503, 0.1752790052525378, 0.3096369530314482, -0.27913304209438716, -0.10580853275564839, -0.22695558356083245, 0.4958505710864547, -0.3744545292734539, 0.30754611478998484, 0.29247757379048944, 0.7191881278430905, -0.42759682117738207, -0.6379063023376396, 0.20865817753489058, 0.0396834181875916, 0.45003779316075576, -0.10325749231008757, 0.3127980749581557, -0.31605736046071375, 0.43470273435274387, -0.28398642728268264, 0.11523224968779881, 0.2568969011568611, 0.19480668025655312, -0.18203445790141826, 0.30732294828476303, 0.11387538271140785, 0.0017569624715529965, -0.45836957252060445, 0.13719830226190208, -0.2994780579387102, 0.06485641651070412, -0.2992728967110525, -0.4748861388935135, -0.07701083655231844, 0.09970868440921898, 0.20970574834174416, -0.07003238535275025, -0.7042597117938911, -0.37468455970736825, 0.39897262964208824, -0.10663448251118506, 0.01749444454542959, -0.27190031717852703, -0.004147241922095035, 0.37950546996221424, -0.013315081726391509, -0.042903698884898964, 0.1953146417899671, -0.08259985929012537]
[0.24807934161803047, 0.4494992436983859, -0.08436348689846862, 0.08429525284215314, 0.1288998478179056, 0.2961710800172678, -0.27913304209438716, -0.10580853275564839, 0.3519894741589235, 0.4958505710864547, -0.3744545292734539, 0.30754611478998484, -0.38092647874320607, 0.7191881278430905, -0.42759682117738207, -0.6489957562354846, 0.20865817753489058, 0.03726029070829984, 0.45003779316075576, -0.14392977793250028, 0.3127980749581557, -0.31605736046071375, 0.43470273435274387, 0.40744479160374064, -0.13593175258825246, -0.37326774631768334, 0.19480668025655312, -0.18203445790141826, 0.48954336884995897, 0.07321236668820232, -0.01411166043992107, -0.36894329223984534, 0.07778134353465463, -0.2994780579387102, 0.06488631330702592, -0.2992728967110525, -0.4748861388935135, -0.04133717880703691, 0.09970868440921898, 0.20970574834174416, 0.020238956521453716, -0.49829876108856486, 0.2820146583001636, 0.39897262964208824, 0.006238974096055883, 0.01749444454542959, -0.27190031717852703, -0.004147241922095035, 0.37950546996221424, -0.013315081726391509, -0.04142686504060822, -0.35046209820452345, 0.0611498279496573]
[0.24807934161803047, -0.3060222281072225, -0.08436348689846862, -0.0470980810489503, 0.1752790052525378, 0.2961710800172678, 0.37633705279525625, -0.10580853275564839, -0.22695558356083245, 0.4958505710864547, -0.1536955043095101, 0.30754611478998484, 0.29247757379048944, 0.7191881278430905, -0.42759682117738207, -0.49286661480842076, 0.20865817753489058, 0.03726029070829984, -0.7988936214313146, -0.14392977793250028, 0.3127980749581557, -0.31605736046071375, 0.43470273435274387, -0.28398642728268264, 0.09986584588541, -0.37326774631768334, 0.19480668025655312, -0.18203445790141826, 0.30732294828476303, 0.19730627314530164, -0.01411166043992107, -0.36894329223984534, -0.3321192231686576, -0.2994780579387102, -0.055896504736344325, -0.2992728967110525, -0.4748861388935135, -0.04133717880703691, 0.09970868440921898, 0.20970574834174416, -0.07003238535275025, 0.37707054119680417, 0.2820146583001636, -0.5457645639153114, 0.37342981864601243, -0.013918839726986704, -0.27190031717852703, -0.0012968579456796186, 0.37950546996221424, 0.002240434575272824, -0.08157127672108253, -0.35046209820452345, -0.08259985929012537]
[0.24807934161803047, 0.2871344430795961, -0.05241472204290153, -0.017688549371598278, 0.1752790052525378, 0.2961710800172678, -0.27913304209438716, -0.10889093752153815, -0.22695558356083245, 0.4958505710864547, 0.6901409371908185, 0.30754611478998484, 0.29247757379048944, -1.0276216264828169, -0.42759682117738207, -0.49286661480842076, 0.20865817753489058, 0.03726029070829984, 0.45003779316075576, -0.02149504130096099, 0.3127980749581557, -0.31605736046071375, 0.43470273435274387, -0.28398642728268264, 0.12104289811179969, -0.37326774631768334, 0.10186384674520384, -0.18203445790141826, 0.30732294828476303, 0.11387538271140785, -0.01411166043992107, -0.36894329223984534, 0.07778134353465463, -0.24000196160791887, -0.027438031259709183, -0.21794223036309215, 0.5063903683575638, -0.04133717880703691, 0.09970868440921898, 0.20970574834174416, -0.07003238535275025, 0.37707054119680417, 0.2820146583001636, 0.5476406535071561, 0.37342981864601243, 0.01749444454542959, -0.27190031717852703, -0.004147241922095035, 0.37950546996221424, -0.013315081726391509, -0.04142686504060822, -0.35046209820452345, -0.08259985929012537]
[0.24807934161803047, 0.4494992436983859, -0.08436348689846862, -0.0470980810489503, 0.1337432252166776, 0.2961710800172678, -0.27913304209438716, -0.10580853275564839, -0.22695558356083245, 0.4958505710864547, -0.48607519172706465, 0.30754611478998484, -0.38092647874320607, 0.7191881278430905, -0.42759682117738207, -0.49286661480842076, 0.20865817753489058, 0.03726029070829984, 0.45003779316075576, 0.04008839321703571, 0.3127980749581557, -0.31605736046071375, 0.43470273435274387, -0.28398642728268264, 0.12104289811179969, -0.37326774631768334, 0.19480668025655312, -0.18203445790141826, 0.30732294828476303, 0.11387538271140785, -0.01411166043992107, -0.36894329223984534, -0.3321192231686576, 0.2748494487616295, 0.07069494362133066, -0.2992728967110525, -0.4748861388935135, -0.04133717880703691, 0.09970868440921898, 0.20970574834174416, -0.07003238535275025, 0.37707054119680417, 0.2820146583001636, 0.39897262964208824, 0.37342981864601243, 0.03223850701769551, -0.27190031717852703, -0.004147241922095035, 0.37950546996221424, -0.013315081726391509, -0.04142686504060822, -0.3630647674273104, -0.08259985929012537]
[0.24807934161803047, 0.4494992436983859, -0.14284241435935074, -0.0470980810489503, 0.1752790052525378, -0.15575639795250187, 0.30632725193442734, -0.10580853275564839, -0.29331547325594715, 0.4958505710864547, -0.3744545292734539, 0.30754611478998484, -0.38092647874320607, 0.7191881278430905, -0.3037607780795571, -0.7039661884197933, 0.20865817753489058, 0.03726029070829984, 0.45003779316075576, -0.14392977793250028, 0.34781642573150523, 0.15231407358365026, -0.17778609772996468, -0.28398642728268264, 0.12104289811179969, -0.37326774631768334, 0.19480668025655312, -0.08013406055592308, 0.30732294828476303, 0.003844297483230214, -0.01411166043992107, 0.5249557551167893, -0.3321192231686576, -0.2994780579387102, 0.07069494362133066, -0.2992728967110525, -0.4748861388935135, -0.04133717880703691, 0.09970868440921898, 0.20970574834174416, -0.07003238535275025, -0.679551678216839, 0.2820146583001636, 0.39897262964208824, 0.37342981864601243, 0.01749444454542959, 0.515651990416358, -0.004147241922095035, 0.37950546996221424, -0.013315081726391509, -0.04142686504060822, -0.35046209820452345, -0.08259985929012537]
[0.24807934161803047, 0.1959554191095701, 0.025506567727283713, -0.0470980810489503, 0.1337432252166776, 0.2961710800172678, -0.27913304209438716, -0.10580853275564839, -0.20678015889499093, 0.4958505710864547, -0.48607519172706465, 0.30754611478998484, -0.38092647874320607, 0.7466531805027216, -0.42759682117738207, 0.009527982984997333, 0.20865817753489058, 0.03726029070829984, 0.48939910809323595, 0.04008839321703571, 0.3127980749581557, -0.31605736046071375, 0.43470273435274387, -0.28398642728268264, 0.12104289811179969, -0.37326774631768334, 0.19480668025655312, 0.019893693434584105, 0.30732294828476303, 0.11387538271140785, -0.01411166043992107, -0.36894329223984534, -0.3321192231686576, 0.2748494487616295, 0.07069494362133066, -0.4770675004147232, -0.4748861388935135, -0.04133717880703691, 0.09970868440921898, 0.20970574834174416, -0.07003238535275025, 0.37707054119680417, 0.2820146583001636, 0.054570013593377494, 0.37342981864601243, 0.03223850701769551, -0.27190031717852703, -0.004147241922095035, 0.37950546996221424, -0.013315081726391509, -0.04142686504060822, -0.3630647674273104, -0.08259985929012537]
[0.24807934161803047, 0.4494992436983859, -0.14284241435935074, -0.0470980810489503, 0.1752790052525378, -0.15575639795250187, -0.27913304209438716, -0.10580853275564839, -0.22695558356083245, -0.3397100216897596, -0.3744545292734539, 0.30754611478998484, -0.38092647874320607, 0.7191881278430905, -0.42759682117738207, -0.49286661480842076, 0.08461235741361835, 0.03726029070829984, 0.45003779316075576, -0.14392977793250028, 0.3127980749581557, -0.31605736046071375, 0.43470273435274387, -0.28398642728268264, 0.020958942308719915, -0.37326774631768334, 0.19480668025655312, -0.18203445790141826, 0.30732294828476303, 0.11387538271140785, 0.010882824126458935, -0.2047092239618178, -0.3321192231686576, -0.2994780579387102, -0.03241458213736605, -0.2992728967110525, -0.4748861388935135, -0.07022590627728403, 0.09970868440921898, 0.20970574834174416, -0.07003238535275025, 0.37707054119680417, -0.37468455970736825, 0.39897262964208824, 0.37342981864601243, 0.01749444454542959, -0.27190031717852703, -0.004147241922095035, 0.37950546996221424, -0.013315081726391509, -0.04142686504060822, -0.35046209820452345, -0.08259985929012537]
[0.24807934161803047, 0.4494992436983859, -0.08436348689846862, -0.0470980810489503, 0.1752790052525378, 0.2961710800172678, -0.27913304209438716, -0.1602445628570988, -0.22695558356083245, -0.8939203837831078, -0.1247310121812535, -0.15939732550164448, -0.38092647874320607, -0.3398735885098677, -0.42759682117738207, -0.49286661480842076, 0.20865817753489058, 0.03726029070829984, 0.45003779316075576, -0.10775128408194967, 0.4170443420850978, -0.31605736046071375, 0.43470273435274387, 0.23912788519875353, -0.07472978813591283, -0.37326774631768334, 0.19480668025655312, -0.15656069245190202, 0.30732294828476303, 0.11387538271140785, -0.01411166043992107, -0.10535966954216638, -0.3321192231686576, -0.2994780579387102, 0.07069494362133066, -0.41261002208297454, -0.4748861388935135, -0.04133717880703691, 0.09970868440921898, 0.20970574834174416, -0.07003238535275025, -0.14985128474773945, 0.2820146583001636, 0.09635634395359902, 0.37342981864601243, 0.008719871062821901, -0.27190031717852703, -0.004147241922095035, 0.37950546996221424, -0.013315081726391509, 0.03357892245208582, -0.35046209820452345, -0.08259985929012537]
[-0.3571274057367292, 0.4494992436983859, -0.013958568047656708, -0.07973903938987292, 0.1752790052525378, 0.2961710800172678, -0.27913304209438716, -0.10580853275564839, 0.30644519924845404, 0.4958505710864547, -0.6480330540357536, 0.30754611478998484, -0.1607219199713086, 0.7191881278430905, 0.1690434238866844, -0.49286661480842076, -0.3956132139346426, 0.03726029070829984, 0.45003779316075576, -0.14392977793250028, -0.17695287051272784, -0.31605736046071375, 0.43470273435274387, -0.28398642728268264, 0.12104289811179969, -0.37326774631768334, 0.19480668025655312, -0.18203445790141826, 0.30732294828476303, 0.018334557594785892, -0.008408658850276824, -0.36894329223984534, -0.3321192231686576, -0.2994780579387102, 0.07069494362133066, -0.2992728967110525, 0.44739588075254666, -0.07617389520229643, 0.09970868440921898, 0.20970574834174416, -0.11979187349964221, 0.37707054119680417, 0.2820146583001636, 0.39897262964208824, 0.37342981864601243, 0.01749444454542959, -0.27190031717852703, 0.006564620510639583, 0.2027593304022287, -0.013315081726391509, -0.04142686504060822, -0.35046209820452345, -0.08259985929012537]
[0.24807934161803047, 0.4494992436983859, -0.08436348689846862, -0.0470980810489503, 0.1752790052525378, 0.2961710800172678, -0.27913304209438716, -0.10580853275564839, 0.11689395226295009, 0.4958505710864547, -0.3744545292734539, 0.30754611478998484, 0.5472437862908518, 0.7191881278430905, -0.42759682117738207, -0.49286661480842076, 0.22368040192615268, 0.03726029070829984, 0.45003779316075576, -0.14392977793250028, 0.3127980749581557, -0.31605736046071375, 0.21038615152394324, -0.28398642728268264, 0.12104289811179969, -0.37326774631768334, 0.1897903579221693, -0.18203445790141826, 0.30732294828476303, 0.11387538271140785, -0.01411166043992107, -0.36894329223984534, -0.3321192231686576, -0.2994780579387102, 0.07069494362133066, -0.2992728967110525, -0.4748861388935135, -0.04133717880703691, -0.10997575383818257, 0.20970574834174416, -0.07003238535275025, 0.37707054119680417, 0.2820146583001636, 0.39897262964208824, 0.37342981864601243, 0.01749444454542959, -0.27190031717852703, -0.004147241922095035, 0.37950546996221424, -0.013315081726391509, -0.04142686504060822, -0.35046209820452345, -0.08259985929012537]
[0.24807934161803047, 0.4494992436983859, 0.005630283582435322, -0.0470980810489503, 0.1752790052525378, 0.2961710800172678, -0.27913304209438716, -0.008209593406116393, -0.22695558356083245, 0.4958505710864547, -0.3744545292734539, 0.30754611478998484, -0.21049470783423907, 0.7191881278430905, -0.42759682117738207, -0.49286661480842076, 0.20865817753489058, 0.03726029070829984, 0.45003779316075576, -0.14392977793250028, 0.3127980749581557, -0.31605736046071375, 0.43470273435274387, -0.28398642728268264, 0.12104289811179969, -0.042622338811784316, 0.1654166070064911, -0.18203445790141826, 0.0949243780087693, 0.11387538271140785, -0.01411166043992107, -0.36894329223984534, 0.07778134353465463, -0.2994780579387102, 0.07069494362133066, -0.2992728967110525, -0.4748861388935135, -0.04133717880703691, 0.09970868440921898, 0.20970574834174416, -0.16733160562672628, 0.37707054119680417, 0.4530161003930731, -0.39216943807396343, 0.37342981864601243, 0.02460820704981226, -0.27190031717852703, -0.004147241922095035, -0.6149528435547342, -0.013315081726391509, -0.04142686504060822, -0.35046209820452345, -0.08259985929012537]
[0.24807934161803047, 0.4494992436983859, -0.048451589890670194, 0.04295920281230418, 0.1752790052525378, -0.15575639795250187, -0.27913304209438716, -0.10580853275564839, -0.22695558356083245, 0.4958505710864547, -0.3744545292734539, 0.30754611478998484, 0.24879666811214432, 0.7191881278430905, -0.42759682117738207, -0.49286661480842076, 0.20865817753489058, -0.009513881815449444, 0.45003779316075576, -0.14392977793250028, 0.3127980749581557, -0.31605736046071375, 0.43470273435274387, 0.31567130453116404, 0.12104289811179969, -0.37326774631768334, 0.19480668025655312, -0.18203445790141826, 0.30732294828476303, 0.11387538271140785, -0.028072649821331775, -0.36894329223984534, -0.37348369594470493, -0.2994780579387102, 0.07069494362133066, -0.2992728967110525, -0.4748861388935135, -0.04133717880703691, 0.09970868440921898, 0.20970574834174416, -0.07003238535275025, 0.37707054119680417, 0.628780581484279, 0.39897262964208824, 0.1890116472500697, 0.01749444454542959, -0.3536201472524839, -0.002551318105724264, 0.12272889600053939, -0.013315081726391509, -0.04142686504060822, -0.35046209820452345, -0.08259985929012537]
[0.24807934161803047, 0.4494992436983859, -0.08436348689846862, -0.0470980810489503, 0.1752790052525378, 0.2961710800172678, -0.27913304209438716, -0.10580853275564839, -0.27801313749861467, 0.4958505710864547, -0.3744545292734539, 0.30754611478998484, -0.050197104294953256, 0.7191881278430905, -0.42759682117738207, -0.15456731845241312, 0.20865817753489058, 0.03726029070829984, 0.45003779316075576, -0.14392977793250028, 0.3127980749581557, 0.2473373822184328, 0.43470273435274387, -0.28398642728268264, 0.12104289811179969, -0.3416005160626896, 0.19480668025655312, -0.18203445790141826, 0.15377719205057935, -0.14694585937933105, 0.019556048093809928, -0.36894329223984534, -0.3321192231686576, -0.16446194603626735, 0.07069494362133066, -0.2992728967110525, -0.4748861388935135, -0.04133717880703691, 0.09970868440921898, 0.20970574834174416, -0.05047071262384494, 0.13476023203563678, 0.2820146583001636, 0.39897262964208824, 0.37342981864601243, 0.01749444454542959, -0.27190031717852703, -0.004147241922095035, 0.37950546996221424, -0.013315081726391509, -0.04142686504060822, -0.35046209820452345, -0.08259985929012537]
[0.24807934161803047, 0.4494992436983859, -0.08436348689846862, -0.0470980810489503, 0.1752790052525378, 0.2961710800172678, -0.27913304209438716, -0.10580853275564839, -0.22695558356083245, -0.5095708894484434, 0.00409561811523052, 0.3521843066882178, 0.29247757379048944, 0.7191881278430905, 0.5237385807092723, -0.49286661480842076, 0.20865817753489058, 0.03726029070829984, 0.4107459243630635, -0.14392977793250028, 0.3127980749581557, 0.5345809033925849, -0.8646533235664082, -0.28398642728268264, 0.12104289811179969, -0.37326774631768334, 0.19480668025655312, -0.18203445790141826, 0.30732294828476303, 0.11387538271140785, -0.01411166043992107, -0.2737775743424238, -0.6169404494846261, -0.2994780579387102, -0.048976124377747426, -0.2992728967110525, -0.4748861388935135, -0.04133717880703691, 0.04527584576973011, 0.20970574834174416, 0.11653182096923723, 0.04572055150692554, -0.37468455970736825, -0.5457645639153114, 0.37342981864601243, 0.01749444454542959, -0.27190031717852703, -0.004147241922095035, 0.5495063612138745, -0.013315081726391509, -0.04142686504060822, -0.35046209820452345, -0.08259985929012537]
[0.24807934161803047, -0.8925521960138595, 0.14287230223007652, -0.0470980810489503, 0.1752790052525378, 0.051529017814729405, -0.3692463411436229, -0.10580853275564839, -0.22695558356083245, 0.03241953348325143, -0.3744545292734539, 0.30754611478998484, 0.29247757379048944, 0.7191881278430905, -0.42759682117738207, -0.5849216895176065, 0.20865817753489058, 0.03726029070829984, 0.45003779316075576, -0.14392977793250028, 0.3127980749581557, -0.31605736046071375, 0.43470273435274387, -0.28398642728268264, 0.09189269359479486, 0.6371868454684084, 0.19480668025655312, -0.18203445790141826, 0.30732294828476303, 0.11387538271140785, -0.01411166043992107, -0.36894329223984534, -0.3321192231686576, -0.2994780579387102, -0.06685213754727738, -0.2992728967110525, -0.4748861388935135, -0.07617389520229643, 0.09970868440921898, 0.20970574834174416, -0.07003238535275025, 0.37707054119680417, -0.37468455970736825, -0.5457645639153114, 0.37342981864601243, 0.01749444454542959, -0.27190031717852703, -0.004147241922095035, 0.37950546996221424, -0.013315081726391509, -0.04142686504060822, -0.35046209820452345, -0.13363987749797743]
[0.315802655295825, -0.05424784955851295, -0.08436348689846862, -0.0470980810489503, 0.1752790052525378, -0.15575639795250187, -0.27913304209438716, -0.10580853275564839, -0.22695558356083245, 0.4958505710864547, -0.3744545292734539, 0.30754611478998484, 0.29247757379048944, 0.7191881278430905, -0.42759682117738207, -0.015535282694832023, 0.20865817753489058, 0.03726029070829984, 0.45003779316075576, -0.14392977793250028, 0.3127980749581557, -0.31605736046071375, 0.43470273435274387, -0.28398642728268264, 0.12104289811179969, -0.37326774631768334, 0.19480668025655312, -0.18203445790141826, 0.30732294828476303, 0.11387538271140785, -0.01411166043992107, -0.36894329223984534, 0.07778134353465463, -0.2994780579387102, 0.07069494362133066, 0.49243884574155455, -0.4748861388935135, -0.07617389520229643, 0.09970868440921898, 0.20970574834174416, -0.07003238535275025, 0.37707054119680417, -0.37468455970736825, 0.39897262964208824, 0.37342981864601243, 0.01749444454542959, -0.22718258294264457, -0.004147241922095035, -0.4891430584689976, -0.013315081726391509, -0.0467867642568606, -0.35046209820452345, 0.013734104143116613]
[0.24807934161803047, -0.41694362122948025, 0.14287230223007652, -0.0470980810489503, 0.1752790052525378, 0.2961710800172678, -0.34773277679378495, -0.10580853275564839, -0.22695558356083245, 0.03241953348325143, 0.16639007362980893, 0.30754611478998484, -0.38092647874320607, 0.7191881278430905, -0.42759682117738207, -0.739653764113257, 0.20865817753489058, 0.06504395992564496, 0.45003779316075576, -0.14392977793250028, 0.3127980749581557, -0.31605736046071375, 0.43470273435274387, -0.28398642728268264, 0.12104289811179969, 0.5238943627935041, 0.19480668025655312, -0.18203445790141826, 0.30732294828476303, -0.16900762331172875, -0.01411166043992107, -0.36894329223984534, -0.3321192231686576, -0.2994780579387102, -0.013404865493100186, 0.5362981899298533, -0.4748861388935135, -0.04133717880703691, -0.16873223233223336, 0.20970574834174416, -0.07003238535275025, 0.37707054119680417, -0.37468455970736825, -0.5457645639153114, 0.37342981864601243, 0.01749444454542959, -0.4208179380405811, -0.0050361359393478935, 0.37950546996221424, -0.024215058805472166, -0.03988953117508928, -0.35046209820452345, 0.16444175568439948]
[0.24807934161803047, 0.4494992436983859, 0.14287230223007652, -0.0470980810489503, 0.1752790052525378, 0.2961710800172678, -0.27913304209438716, -0.10580853275564839, -0.22695558356083245, 0.03241953348325143, -0.3744545292734539, 0.30754611478998484, 0.29247757379048944, 0.7191881278430905, -0.42759682117738207, -0.49286661480842076, 0.20865817753489058, 0.03726029070829984, 0.45003779316075576, -0.14392977793250028, 0.3127980749581557, -0.31605736046071375, 0.43470273435274387, -0.28398642728268264, 0.12104289811179969, -0.37326774631768334, 0.19480668025655312, -0.18203445790141826, 0.30732294828476303, 0.11387538271140785, -0.01411166043992107, -0.36894329223984534, -0.3321192231686576, -0.2994780579387102, -0.06685213754727738, -0.2992728967110525, -0.4748861388935135, -0.07617389520229643, 0.09970868440921898, 0.20970574834174416, -0.07003238535275025, 0.37707054119680417, 0.2820146583001636, -0.5457645639153114, 0.37342981864601243, 0.01749444454542959, -0.27190031717852703, -0.004147241922095035, 0.37950546996221424, -0.013315081726391509, -0.04142686504060822, -0.35046209820452345, -0.08259985929012537]
[0.24807934161803047, -0.8925521960138595, 0.14287230223007652, -0.0470980810489503, 0.1752790052525378, 0.051529017814729405, -0.3692463411436229, -0.10580853275564839, -0.22695558356083245, 0.4958505710864547, -0.3744545292734539, 0.30754611478998484, -0.38092647874320607, 0.7191881278430905, -0.42759682117738207, -0.49286661480842076, 0.20865817753489058, 0.03726029070829984, 0.45003779316075576, -0.14392977793250028, 0.3127980749581557, -0.31605736046071375, 0.43470273435274387, -0.28398642728268264, 0.12104289811179969, 0.6371868454684084, 0.19480668025655312, -0.18203445790141826, 0.30732294828476303, 0.11387538271140785, -0.01411166043992107, -0.36894329223984534, -0.3321192231686576, -0.2994780579387102, -0.06685213754727738, -0.2992728967110525, -0.4748861388935135, -0.07617389520229643, 0.09970868440921898, 0.20970574834174416, -0.07003238535275025, 0.37707054119680417, -0.37468455970736825, -0.5457645639153114, 0.37342981864601243, 0.01749444454542959, -0.27190031717852703, -0.004147241922095035, 0.37950546996221424, -0.013315081726391509, -0.04142686504060822, -0.35046209820452345, -0.08259985929012537]
[0.24807934161803047, -0.8925521960138595, -0.08436348689846862, -0.0470980810489503, 0.1752790052525378, 0.2961710800172678, -0.3692463411436229, -0.10580853275564839, -0.22695558356083245, 0.4958505710864547, -0.3744545292734539, 0.30754611478998484, 0.29247757379048944, 0.7191881278430905, -0.42759682117738207, -0.49286661480842076, 0.20865817753489058, 0.03726029070829984, 0.45003779316075576, -0.14392977793250028, 0.3127980749581557, -0.31605736046071375, 0.43470273435274387, -0.28398642728268264, 0.12104289811179969, 0.6371868454684084, 0.19480668025655312, -0.18203445790141826, 0.30732294828476303, 0.11387538271140785, -0.01411166043992107, -0.36894329223984534, -0.3321192231686576, -0.2994780579387102, 0.07069494362133066, -0.2992728967110525, -0.4748861388935135, -0.07617389520229643, 0.09970868440921898, 0.20970574834174416, -0.07003238535275025, 0.37707054119680417, -0.37468455970736825, -0.5457645639153114, 0.37342981864601243, 0.01749444454542959, -0.27190031717852703, -0.004147241922095035, 0.37950546996221424, -0.013315081726391509, -0.04142686504060822, -0.35046209820452345, -0.08259985929012537]
[0.25038562492275535, 0.4494992436983859, -0.08436348689846862, -0.0470980810489503, 0.1752790052525378, -0.15575639795250187, -0.27913304209438716, -0.10580853275564839, -0.22695558356083245, 0.4958505710864547, -0.3744545292734539, 0.30754611478998484, -0.38092647874320607, 0.510941963615282, -0.42759682117738207, -0.49286661480842076, 0.20865817753489058, 0.03726029070829984, 0.45003779316075576, -0.14392977793250028, 0.3127980749581557, -0.31605736046071375, 0.43470273435274387, -0.28398642728268264, 0.12104289811179969, -0.37326774631768334, 0.19480668025655312, -0.18203445790141826, 0.30732294828476303, 0.11387538271140785, 0.022115634356029257, -0.36894329223984534, -0.3321192231686576, -0.2994780579387102, 0.07069494362133066, -0.2992728967110525, 0.43553858281974517, -0.04133717880703691, 0.09970868440921898, 0.20970574834174416, -0.07003238535275025, -0.44015406116827926, -0.37468455970736825, 0.39897262964208824, 0.5114875241191941, 0.01749444454542959, -0.2652822142348813, -0.004147241922095035, -0.22331898239261225, -0.013315081726391509, -0.04142686504060822, 0.1975910982600752, -0.08259985929012537]
[0.24807934161803047, -0.8925521960138595, 0.14287230223007652, -0.0470980810489503, 0.1752790052525378, -0.15575639795250187, -0.27913304209438716, -0.10580853275564839, -0.22695558356083245, 0.03241953348325143, -0.3744545292734539, 0.30754611478998484, 0.24879666811214432, 0.7191881278430905, -0.42759682117738207, -0.5849216895176065, 0.20865817753489058, -0.009513881815449444, 0.45003779316075576, -0.14392977793250028, 0.3127980749581557, -0.31605736046071375, 0.43470273435274387, -0.28398642728268264, 0.09189269359479486, 0.6371868454684084, 0.19480668025655312, -0.18203445790141826, 0.30732294828476303, 0.11387538271140785, -0.028072649821331775, -0.36894329223984534, -0.37348369594470493, -0.2994780579387102, 0.07069494362133066, -0.2992728967110525, -0.4748861388935135, -0.04133717880703691, 0.09970868440921898, 0.20970574834174416, -0.07003238535275025, 0.37707054119680417, -0.37468455970736825, 0.39897262964208824, 0.37342981864601243, 0.01749444454542959, -0.3536201472524839, -0.004147241922095035, 0.12272889600053939, -0.013315081726391509, -0.04142686504060822, -0.35046209820452345, -0.13363987749797743]
[0.24807934161803047, 0.4494992436983859, 0.14287230223007652, 0.04295920281230418, 0.1752790052525378, -0.15575639795250187, -0.3692463411436229, -0.10580853275564839, -0.22695558356083245, 0.03241953348325143, -0.3744545292734539, 0.30754611478998484, 0.29247757379048944, 0.7191881278430905, -0.42759682117738207, -0.49286661480842076, 0.20865817753489058, 0.03726029070829984, 0.45003779316075576, -0.14392977793250028, 0.3127980749581557, -0.31605736046071375, 0.43470273435274387, 0.31567130453116404, 0.12104289811179969, 0.6371868454684084, 0.19480668025655312, -0.18203445790141826, 0.30732294828476303, 0.11387538271140785, -0.028072649821331775, -0.36894329223984534, -0.37348369594470493, -0.2994780579387102, 0.07069494362133066, -0.2992728967110525, -0.4748861388935135, -0.07617389520229643, 0.09970868440921898, 0.20970574834174416, -0.07003238535275025, 0.37707054119680417, 0.628780581484279, -0.5457645639153114, 0.37342981864601243, 0.01749444454542959, -0.27190031717852703, -0.002551318105724264, 0.12272889600053939, -0.013315081726391509, -0.04142686504060822, -0.35046209820452345, -0.13363987749797743]
[-0.40597717737907446, 0.4494992436983859, -0.08436348689846862, -0.0470980810489503, 0.1752790052525378, 0.2961710800172678, -0.27913304209438716, -0.10580853275564839, -0.22695558356083245, 0.4958505710864547, -0.3744545292734539, 0.30754611478998484, -0.38092647874320607, 0.7191881278430905, -0.42759682117738207, -0.49286661480842076, -0.00045854913268359636, 0.03726029070829984, 0.45003779316075576, -0.14392977793250028, 0.3127980749581557, -0.31605736046071375, 0.43470273435274387, -0.28398642728268264, 0.12104289811179969, -0.37326774631768334, 0.19480668025655312, -0.2642892975373517, 0.30732294828476303, -0.037206612129093666, -0.009945853163564455, -0.36894329223984534, -0.3321192231686576, -0.5401115087372776, 0.07069494362133066, -0.2992728967110525, -0.4748861388935135, -0.04133717880703691, 0.09970868440921898, 0.20970574834174416, -0.07003238535275025, 0.11404068201726016, 0.2820146583001636, 0.39897262964208824, 0.37342981864601243, 0.01749444454542959, -0.27190031717852703, -0.004147241922095035, 0.37950546996221424, -0.013315081726391509, -0.04142686504060822, -0.35046209820452345, -0.08259985929012537]
[0.24807934161803047, 0.4494992436983859, -0.14284241435935074, -0.0470980810489503, 0.1752790052525378, 0.2961710800172678, -0.27913304209438716, -0.10580853275564839, -0.22695558356083245, -0.057643777708328604, -0.09932250917079223, 0.016615628260874805, 0.2656760826026958, 0.7191881278430905, -0.42759682117738207, -0.49286661480842076, 0.20865817753489058, 0.03726029070829984, 0.45003779316075576, -0.14392977793250028, 0.3127980749581557, -0.10689176017371184, 0.43470273435274387, -0.3997747192774201, 0.12104289811179969, -0.37326774631768334, 0.19480668025655312, -0.18203445790141826, -0.2068112065944676, 0.11387538271140785, -0.01411166043992107, 0.41120663312391664, -0.3321192231686576, -0.2994780579387102, 0.06192118771953757, -0.2992728967110525, -0.4748861388935135, 0.05403294243116727, 0.09970868440921898, 0.20970574834174416, -0.07003238535275025, 0.37707054119680417, 0.2820146583001636, 0.39897262964208824, 0.4645704212648931, 0.01749444454542959, -0.27190031717852703, -0.004147241922095035, 0.37950546996221424, -0.013315081726391509, -0.04142686504060822, -0.35046209820452345, -0.08259985929012537]
[0.24807934161803047, 0.4494992436983859, -0.08436348689846862, -0.0470980810489503, 0.1752790052525378, 0.2961710800172678, -0.27913304209438716, -0.10580853275564839, -0.22695558356083245, 0.4958505710864547, -0.3744545292734539, 0.30754611478998484, -0.38092647874320607, -0.6852420202912521, -0.42759682117738207, 0.6680491984921184, 0.20865817753489058, -0.06946779813475684, 0.45003779316075576, 0.23674745790239154, 0.3127980749581557, -0.31605736046071375, 0.43470273435274387, -0.28398642728268264, 0.12104289811179969, -0.38700486357422065, -0.14398643598911334, -0.18203445790141826, 0.30732294828476303, 0.11387538271140785, -0.01411166043992107, -0.36894329223984534, -0.3321192231686576, -0.2994780579387102, 0.07069494362133066, -0.2992728967110525, -0.4748861388935135, -0.011189008656550129, 0.09970868440921898, 0.20970574834174416, -0.07003238535275025, 0.37707054119680417, 0.2820146583001636, 0.39897262964208824, 0.37342981864601243, -0.01502175168368441, -0.27190031717852703, -0.004147241922095035, 0.37950546996221424, -0.013315081726391509, -0.01652685500741279, -0.35046209820452345, 0.048946400055807145]
[0.24807934161803047, 0.4494992436983859, -0.08436348689846862, -0.0470980810489503, 0.1752790052525378, 0.2961710800172678, -0.27913304209438716, -0.10580853275564839, -0.22695558356083245, 0.4958505710864547, -0.3744545292734539, 0.18710638770823435, 0.29247757379048944, -0.8171579145160462, -0.42759682117738207, -0.49286661480842076, 0.20865817753489058, 0.03726029070829984, 0.45003779316075576, -0.14392977793250028, 0.3127980749581557, -0.31605736046071375, 0.43470273435274387, -0.28398642728268264, 0.12104289811179969, -0.37326774631768334, 0.19480668025655312, -0.18203445790141826, 0.30732294828476303, 0.11387538271140785, -0.01411166043992107, -0.36894329223984534, -0.3321192231686576, -0.2994780579387102, 0.07069494362133066, -0.2992728967110525, 0.00929285202118503, -0.04133717880703691, 0.09970868440921898, 0.20970574834174416, -0.07003238535275025, -0.26252270172550946, -0.37468455970736825, 0.39897262964208824, 0.3568741498878998, 0.01749444454542959, -0.27190031717852703, -0.004147241922095035, 0.37950546996221424, -0.013315081726391509, -0.04142686504060822, -0.35046209820452345, -0.11240088782768806]
[0.24807934161803047, 0.4494992436983859, -0.14284241435935074, -0.0470980810489503, 0.1752790052525378, 0.2961710800172678, -0.27913304209438716, -0.10580853275564839, -0.22695558356083245, 0.4958505710864547, -0.3744545292734539, 0.30754611478998484, -0.38092647874320607, 0.7191881278430905, -0.42759682117738207, -0.49286661480842076, 0.20865817753489058, 0.03726029070829984, 0.45003779316075576, -0.14392977793250028, 0.3127980749581557, -0.31605736046071375, 0.43470273435274387, -0.28398642728268264, 0.12104289811179969, -0.37326774631768334, 0.19480668025655312, -0.18203445790141826, 0.30732294828476303, 0.11387538271140785, -0.01411166043992107, -0.36894329223984534, -0.3321192231686576, -0.2994780579387102, 0.07069494362133066, -0.2992728967110525, -0.4748861388935135, -0.04133717880703691, 0.09970868440921898, 0.20970574834174416, -0.07003238535275025, 0.37707054119680417, 0.2820146583001636, 0.39897262964208824, 0.37342981864601243, 0.01749444454542959, -0.27190031717852703, -0.004147241922095035, 0.37950546996221424, -0.013315081726391509, -0.04142686504060822, -0.35046209820452345, -0.08259985929012537]
[0.24807934161803047, 0.4494992436983859, -0.14284241435935074, -0.0470980810489503, 0.1752790052525378, 0.2961710800172678, -0.27913304209438716, -0.10580853275564839, -0.22695558356083245, 0.4958505710864547, -0.3744545292734539, 0.30754611478998484, -0.38092647874320607, 0.7191881278430905, -0.42759682117738207, -0.49286661480842076, 0.20865817753489058, 0.03726029070829984, 0.45003779316075576, -0.14392977793250028, 0.3127980749581557, -0.31605736046071375, 0.43470273435274387, -0.28398642728268264, 0.12104289811179969, -0.37326774631768334, 0.19480668025655312, -0.18203445790141826, 0.30732294828476303, 0.11387538271140785, -0.01411166043992107, -0.36894329223984534, -0.3321192231686576, -0.2994780579387102, 0.07069494362133066, -0.2992728967110525, -0.4748861388935135, -0.04133717880703691, 0.09970868440921898, 0.20970574834174416, -0.07003238535275025, 0.37707054119680417, 0.2820146583001636, 0.39897262964208824, 0.37342981864601243, 0.01749444454542959, -0.27190031717852703, -0.004147241922095035, 0.37950546996221424, -0.013315081726391509, -0.04142686504060822, -0.35046209820452345, -0.08259985929012537]
[0.24807934161803047, 0.4494992436983859, -0.14284241435935074, -0.0470980810489503, 0.1752790052525378, 0.2961710800172678, -0.27913304209438716, -0.10580853275564839, -0.22695558356083245, 0.4958505710864547, -0.3744545292734539, 0.30754611478998484, -0.38092647874320607, 0.7191881278430905, -0.42759682117738207, -0.49286661480842076, 0.20865817753489058, 0.03726029070829984, 0.45003779316075576, -0.14392977793250028, 0.3127980749581557, -0.31605736046071375, 0.43470273435274387, -0.28398642728268264, 0.12104289811179969, -0.37326774631768334, 0.19480668025655312, -0.18203445790141826, 0.30732294828476303, 0.11387538271140785, -0.01411166043992107, -0.36894329223984534, -0.3321192231686576, -0.2994780579387102, 0.07069494362133066, -0.2992728967110525, -0.4748861388935135, -0.04133717880703691, 0.09970868440921898, 0.20970574834174416, -0.07003238535275025, 0.37707054119680417, 0.2820146583001636, 0.39897262964208824, 0.37342981864601243, 0.01749444454542959, -0.27190031717852703, -0.004147241922095035, 0.37950546996221424, -0.013315081726391509, -0.04142686504060822, -0.35046209820452345, -0.08259985929012537]
[0.24807934161803047, 0.4494992436983859, -0.08436348689846862, -0.0470980810489503, 0.1752790052525378, 0.2961710800172678, -0.27913304209438716, -0.10580853275564839, -0.22695558356083245, 0.4958505710864547, -0.3744545292734539, 0.30754611478998484, 0.29247757379048944, 0.7191881278430905, -0.42759682117738207, -0.49286661480842076, 0.20865817753489058, 0.03726029070829984, 0.45003779316075576, -0.14392977793250028, 0.3127980749581557, -0.31605736046071375, 0.21038615152394324, -0.28398642728268264, 0.12104289811179969, -0.37326774631768334, 0.19480668025655312, -0.18203445790141826, 0.30732294828476303, 0.11387538271140785, -0.01411166043992107, -0.36894329223984534, -0.3321192231686576, -0.2994780579387102, 0.07069494362133066, -0.2992728967110525, -0.4748861388935135, -0.04133717880703691, 0.09970868440921898, 0.20970574834174416, -0.07003238535275025, 0.37707054119680417, 0.2820146583001636, 0.39897262964208824, 0.37342981864601243, 0.01749444454542959, -0.27190031717852703, -0.004147241922095035, 0.37950546996221424, -0.013315081726391509, -0.04142686504060822, -0.3630647674273104, -0.08259985929012537]
[0.24807934161803047, 0.4494992436983859, -0.08436348689846862, -0.0470980810489503, 0.1752790052525378, -0.15575639795250187, -0.27913304209438716, -0.10580853275564839, -0.22695558356083245, 0.4958505710864547, -0.3744545292734539, 0.30754611478998484, 0.29247757379048944, 0.7191881278430905, -0.42759682117738207, -0.49286661480842076, 0.20865817753489058, 0.03726029070829984, 0.45003779316075576, -0.14392977793250028, 0.3127980749581557, -0.31605736046071375, 0.43470273435274387, -0.28398642728268264, 0.12104289811179969, -0.37326774631768334, 0.19480668025655312, -0.18203445790141826, 0.30732294828476303, 0.11387538271140785, -0.01411166043992107, -0.36894329223984534, -0.3321192231686576, -0.2994780579387102, 0.07069494362133066, -0.2992728967110525, -0.4748861388935135, -0.04133717880703691, 0.09970868440921898, 0.20970574834174416, -0.07003238535275025, 0.37707054119680417, 0.2820146583001636, 0.39897262964208824, 0.37342981864601243, 0.01749444454542959, -0.27190031717852703, -0.004147241922095035, 0.37950546996221424, -0.013315081726391509, -0.04142686504060822, -0.35046209820452345, -0.08259985929012537]
[0.24807934161803047, 0.4494992436983859, -0.08436348689846862, -0.0470980810489503, 0.1752790052525378, 0.2961710800172678, -0.27913304209438716, -0.10580853275564839, -0.22695558356083245, 0.4958505710864547, -0.3744545292734539, 0.30754611478998484, -0.38092647874320607, 0.7191881278430905, -0.42759682117738207, -0.49286661480842076, 0.20865817753489058, 0.03726029070829984, 0.45003779316075576, -0.14392977793250028, 0.3127980749581557, -0.31605736046071375, 0.43470273435274387, -0.28398642728268264, 0.12104289811179969, -0.37326774631768334, 0.19480668025655312, -0.18203445790141826, 0.30732294828476303, 0.11387538271140785, -0.01411166043992107, -0.36894329223984534, -0.3321192231686576, -0.2994780579387102, 0.07069494362133066, -0.2992728967110525, -0.4748861388935135, -0.04133717880703691, 0.09970868440921898, 0.20970574834174416, -0.07003238535275025, 0.37707054119680417, -0.37468455970736825, 0.39897262964208824, 0.37342981864601243, 0.01749444454542959, -0.27190031717852703, -0.004147241922095035, 0.37950546996221424, -0.013315081726391509, -0.04142686504060822, -0.35046209820452345, -0.08259985929012537]
[0.24807934161803047, 0.4494992436983859, -0.08436348689846862, -0.0470980810489503, 0.1752790052525378, -0.15575639795250187, -0.27913304209438716, -0.10580853275564839, -0.22695558356083245, 0.4958505710864547, -0.3744545292734539, 0.30754611478998484, 0.29247757379048944, 0.7191881278430905, -0.42759682117738207, -0.49286661480842076, 0.20865817753489058, 0.03726029070829984, 0.45003779316075576, -0.14392977793250028, 0.3127980749581557, -0.31605736046071375, 0.43470273435274387, -0.28398642728268264, 0.12104289811179969, -0.37326774631768334, 0.19480668025655312, -0.18203445790141826, 0.30732294828476303, 0.11387538271140785, -0.01411166043992107, -0.36894329223984534, -0.3321192231686576, -0.2994780579387102, 0.07069494362133066, -0.2992728967110525, -0.4748861388935135, -0.07617389520229643, 0.09970868440921898, 0.20970574834174416, -0.07003238535275025, 0.37707054119680417, -0.37468455970736825, 0.39897262964208824, 0.37342981864601243, 0.01749444454542959, -0.27190031717852703, -0.004147241922095035, 0.37950546996221424, -0.013315081726391509, -0.04142686504060822, -0.3630647674273104, -0.08259985929012537]
[0.24807934161803047, 0.4494992436983859, -0.14284241435935074, -0.0470980810489503, 0.1752790052525378, 0.2961710800172678, -0.27913304209438716, -0.10580853275564839, -0.22695558356083245, 0.4958505710864547, -0.3744545292734539, 0.30754611478998484, 0.29247757379048944, 0.7191881278430905, -0.42759682117738207, -0.49286661480842076, 0.20865817753489058, 0.03726029070829984, 0.45003779316075576, -0.14392977793250028, 0.3127980749581557, -0.31605736046071375, 0.43470273435274387, -0.28398642728268264, 0.12104289811179969, -0.37326774631768334, 0.19480668025655312, -0.18203445790141826, 0.30732294828476303, 0.11387538271140785, -0.01411166043992107, -0.36894329223984534, 0.07778134353465463, -0.2994780579387102, 0.07069494362133066, -0.2992728967110525, -0.4748861388935135, -0.04133717880703691, 0.09970868440921898, 0.20970574834174416, -0.07003238535275025, 0.37707054119680417, 0.2820146583001636, -0.5457645639153114, 0.37342981864601243, 0.01749444454542959, -0.27190031717852703, -0.004147241922095035, 0.37950546996221424, -0.013315081726391509, -0.04142686504060822, -0.35046209820452345, -0.08259985929012537]
[0.24807934161803047, 0.4494992436983859, -0.08436348689846862, -0.0470980810489503, 0.1752790052525378, 0.2961710800172678, -0.27913304209438716, -0.10580853275564839, -0.22695558356083245, 0.4958505710864547, -0.3744545292734539, 0.30754611478998484, 0.29247757379048944, 0.7191881278430905, -0.42759682117738207, -0.49286661480842076, 0.20865817753489058, 0.03726029070829984, 0.45003779316075576, -0.14392977793250028, 0.3127980749581557, -0.31605736046071375, 0.43470273435274387, -0.28398642728268264, 0.12104289811179969, -0.37326774631768334, 0.19480668025655312, -0.18203445790141826, 0.30732294828476303, 0.11387538271140785, -0.01411166043992107, -0.36894329223984534, -0.3321192231686576, -0.2994780579387102, 0.07069494362133066, -0.2992728967110525, -0.4748861388935135, -0.04133717880703691, 0.09970868440921898, 0.20970574834174416, -0.07003238535275025, 0.37707054119680417, 0.2820146583001636, 0.39897262964208824, 0.37342981864601243, 0.01749444454542959, -0.27190031717852703, -0.004147241922095035, 0.37950546996221424, -0.013315081726391509, -0.04142686504060822, -0.35046209820452345, -0.08259985929012537]
[0.24807934161803047, 0.4494992436983859, -0.08436348689846862, -0.0470980810489503, 0.1752790052525378, -0.15575639795250187, -0.27913304209438716, -0.10580853275564839, -0.22695558356083245, 0.4958505710864547, -0.3744545292734539, 0.30754611478998484, 0.29247757379048944, 0.7191881278430905, -0.42759682117738207, -0.49286661480842076, 0.20865817753489058, 0.03726029070829984, 0.45003779316075576, -0.14392977793250028, 0.3127980749581557, -0.31605736046071375, 0.43470273435274387, -0.28398642728268264, 0.12104289811179969, -0.37326774631768334, 0.19480668025655312, -0.18203445790141826, 0.30732294828476303, 0.11387538271140785, -0.01411166043992107, -0.36894329223984534, -0.3321192231686576, -0.2994780579387102, 0.07069494362133066, -0.2992728967110525, -0.4748861388935135, -0.07617389520229643, 0.09970868440921898, 0.20970574834174416, -0.07003238535275025, 0.37707054119680417, 0.2820146583001636, 0.39897262964208824, 0.37342981864601243, 0.01749444454542959, -0.27190031717852703, -0.004147241922095035, 0.37950546996221424, -0.013315081726391509, -0.04142686504060822, -0.35046209820452345, -0.08259985929012537]
[0.24807934161803047, 0.4494992436983859, -0.14284241435935074, -0.0470980810489503, 0.1752790052525378, 0.2961710800172678, -0.27913304209438716, -0.10580853275564839, -0.22695558356083245, 0.4958505710864547, -0.3744545292734539, 0.30754611478998484, -0.38092647874320607, 0.7191881278430905, -0.42759682117738207, -0.49286661480842076, 0.20865817753489058, 0.03726029070829984, 0.45003779316075576, -0.14392977793250028, 0.3127980749581557, -0.31605736046071375, 0.43470273435274387, -0.28398642728268264, 0.12104289811179969, -0.37326774631768334, 0.19480668025655312, -0.18203445790141826, 0.30732294828476303, 0.11387538271140785, -0.01411166043992107, -0.36894329223984534, -0.3321192231686576, -0.2994780579387102, 0.07069494362133066, -0.2992728967110525, -0.4748861388935135, -0.04133717880703691, 0.09970868440921898, 0.20970574834174416, -0.07003238535275025, 0.37707054119680417, 0.2820146583001636, 0.39897262964208824, 0.37342981864601243, 0.01749444454542959, -0.27190031717852703, -0.004147241922095035, 0.37950546996221424, -0.013315081726391509, -0.04142686504060822, -0.35046209820452345, -0.08259985929012537]
[0.24807934161803047, 0.4494992436983859, -0.08436348689846862, -0.0470980810489503, 0.1752790052525378, -0.15575639795250187, -0.27913304209438716, -0.10580853275564839, -0.22695558356083245, 0.4958505710864547, -0.3744545292734539, 0.30754611478998484, 0.29247757379048944, 0.7191881278430905, -0.42759682117738207, -0.49286661480842076, 0.20865817753489058, 0.03726029070829984, 0.45003779316075576, -0.14392977793250028, 0.3127980749581557, -0.31605736046071375, 0.43470273435274387, -0.28398642728268264, 0.12104289811179969, -0.37326774631768334, 0.19480668025655312, -0.18203445790141826, 0.30732294828476303, 0.11387538271140785, -0.01411166043992107, -0.36894329223984534, 0.07778134353465463, -0.2994780579387102, 0.07069494362133066, -0.2992728967110525, -0.4748861388935135, -0.04133717880703691, 0.09970868440921898, 0.20970574834174416, -0.07003238535275025, 0.37707054119680417, 0.2820146583001636, 0.39897262964208824, 0.37342981864601243, 0.01749444454542959, -0.27190031717852703, -0.004147241922095035, 0.37950546996221424, -0.013315081726391509, -0.04142686504060822, -0.3630647674273104, -0.08259985929012537]
[0.24807934161803047, 0.4494992436983859, -0.08436348689846862, -0.0470980810489503, 0.1752790052525378, 0.2961710800172678, -0.27913304209438716, -0.10580853275564839, -0.22695558356083245, 0.4958505710864547, -0.3744545292734539, 0.30754611478998484, 0.29247757379048944, 0.7191881278430905, -0.42759682117738207, -0.49286661480842076, 0.20865817753489058, 0.03726029070829984, 0.45003779316075576, -0.14392977793250028, 0.3127980749581557, -0.31605736046071375, 0.43470273435274387, -0.28398642728268264, 0.12104289811179969, -0.37326774631768334, 0.19480668025655312, -0.18203445790141826, 0.30732294828476303, 0.11387538271140785, -0.01411166043992107, -0.36894329223984534, -0.3321192231686576, -0.2994780579387102, 0.07069494362133066, -0.2992728967110525, -0.4748861388935135, -0.04133717880703691, 0.09970868440921898, 0.20970574834174416, -0.07003238535275025, 0.37707054119680417, -0.37468455970736825, 0.39897262964208824, 0.37342981864601243, 0.01749444454542959, -0.27190031717852703, -0.004147241922095035, 0.37950546996221424, -0.013315081726391509, -0.04142686504060822, -0.35046209820452345, -0.08259985929012537]
[0.24807934161803047, 0.4494992436983859, -0.08436348689846862, -0.0470980810489503, 0.1752790052525378, -0.15575639795250187, -0.27913304209438716, -0.10580853275564839, -0.22695558356083245, 0.4958505710864547, -0.3744545292734539, 0.30754611478998484, 0.29247757379048944, 0.7191881278430905, -0.42759682117738207, -0.49286661480842076, 0.20865817753489058, 0.03726029070829984, 0.45003779316075576, -0.14392977793250028, 0.3127980749581557, -0.31605736046071375, 0.21038615152394324, -0.28398642728268264, 0.12104289811179969, -0.37326774631768334, 0.19480668025655312, -0.18203445790141826, 0.30732294828476303, 0.11387538271140785, -0.01411166043992107, -0.36894329223984534, -0.3321192231686576, -0.2994780579387102, 0.07069494362133066, -0.2992728967110525, -0.4748861388935135, -0.04133717880703691, 0.09970868440921898, 0.20970574834174416, -0.07003238535275025, 0.37707054119680417, -0.37468455970736825, 0.39897262964208824, 0.37342981864601243, 0.01749444454542959, -0.27190031717852703, -0.004147241922095035, 0.37950546996221424, -0.013315081726391509, -0.04142686504060822, -0.35046209820452345, -0.08259985929012537]
[0.24807934161803047, 0.4494992436983859, -0.08436348689846862, -0.0470980810489503, 0.1752790052525378, 0.2961710800172678, -0.27913304209438716, -0.10580853275564839, -0.22695558356083245, 0.4958505710864547, -0.3744545292734539, 0.30754611478998484, 0.29247757379048944, 0.7191881278430905, -0.42759682117738207, -0.49286661480842076, 0.20865817753489058, 0.03726029070829984, 0.45003779316075576, -0.14392977793250028, 0.3127980749581557, -0.31605736046071375, 0.43470273435274387, -0.28398642728268264, 0.12104289811179969, -0.37326774631768334, 0.19480668025655312, -0.18203445790141826, 0.30732294828476303, 0.11387538271140785, -0.01411166043992107, -0.36894329223984534, -0.3321192231686576, -0.2994780579387102, 0.07069494362133066, -0.2992728967110525, -0.4748861388935135, -0.04133717880703691, 0.09970868440921898, 0.20970574834174416, -0.12929990772479247, 0.37707054119680417, 0.2820146583001636, 0.39897262964208824, 0.37342981864601243, 0.01749444454542959, -0.27190031717852703, -0.004147241922095035, 0.37950546996221424, -0.013315081726391509, -0.04142686504060822, -0.35046209820452345, -0.08259985929012537]
[0.24807934161803047, 0.4494992436983859, -0.14284241435935074, -0.0470980810489503, 0.1752790052525378, -0.15575639795250187, -0.27913304209438716, -0.10580853275564839, -0.22695558356083245, 0.4958505710864547, -0.3744545292734539, 0.30754611478998484, 0.29247757379048944, 0.7191881278430905, -0.42759682117738207, -0.49286661480842076, 0.20865817753489058, 0.03726029070829984, 0.45003779316075576, -0.14392977793250028, 0.3127980749581557, -0.31605736046071375, 0.21038615152394324, -0.28398642728268264, 0.12104289811179969, -0.37326774631768334, 0.19480668025655312, -0.18203445790141826, 0.30732294828476303, 0.11387538271140785, -0.01411166043992107, -0.36894329223984534, -0.3321192231686576, -0.2994780579387102, 0.07069494362133066, -0.2992728967110525, -0.4748861388935135, -0.04133717880703691, 0.09970868440921898, 0.20970574834174416, -0.07003238535275025, 0.37707054119680417, 0.2820146583001636, 0.39897262964208824, 0.37342981864601243, 0.01749444454542959, -0.27190031717852703, -0.004147241922095035, 0.37950546996221424, -0.013315081726391509, -0.04142686504060822, -0.35046209820452345, -0.08259985929012537]
[0.24807934161803047, 0.4494992436983859, -0.08436348689846862, -0.0470980810489503, 0.1752790052525378, 0.2961710800172678, -0.27913304209438716, -0.10580853275564839, -0.22695558356083245, 0.4958505710864547, -0.3744545292734539, 0.30754611478998484, -0.38092647874320607, 0.7191881278430905, -0.42759682117738207, -0.49286661480842076, 0.20865817753489058, 0.03726029070829984, 0.45003779316075576, -0.14392977793250028, 0.3127980749581557, -0.31605736046071375, 0.43470273435274387, -0.28398642728268264, 0.12104289811179969, -0.37326774631768334, 0.19480668025655312, -0.18203445790141826, 0.30732294828476303, 0.11387538271140785, -0.01411166043992107, -0.36894329223984534, -0.3321192231686576, -0.2994780579387102, 0.07069494362133066, -0.2992728967110525, -0.4748861388935135, -0.04133717880703691, 0.09970868440921898, 0.20970574834174416, -0.07003238535275025, 0.37707054119680417, 0.2820146583001636, 0.39897262964208824, 0.37342981864601243, 0.01749444454542959, -0.27190031717852703, -0.004147241922095035, 0.37950546996221424, -0.013315081726391509, -0.04142686504060822, -0.35046209820452345, -0.08259985929012537]
[0.24807934161803047, 0.4494992436983859, -0.08436348689846862, -0.0470980810489503, 0.1752790052525378, -0.15575639795250187, -0.27913304209438716, -0.10580853275564839, -0.22695558356083245, 0.4958505710864547, -0.3744545292734539, 0.30754611478998484, 0.29247757379048944, 0.7191881278430905, -0.42759682117738207, -0.49286661480842076, 0.20865817753489058, 0.03726029070829984, 0.45003779316075576, -0.14392977793250028, 0.3127980749581557, -0.31605736046071375, 0.43470273435274387, -0.28398642728268264, 0.12104289811179969, -0.37326774631768334, 0.19480668025655312, -0.18203445790141826, 0.30732294828476303, 0.11387538271140785, -0.01411166043992107, -0.36894329223984534, -0.3321192231686576, -0.2994780579387102, 0.07069494362133066, -0.2992728967110525, -0.4748861388935135, -0.07617389520229643, 0.09970868440921898, 0.20970574834174416, -0.07003238535275025, 0.37707054119680417, 0.2820146583001636, 0.39897262964208824, 0.37342981864601243, 0.01749444454542959, -0.27190031717852703, -0.004147241922095035, 0.37950546996221424, -0.013315081726391509, -0.04142686504060822, -0.3630647674273104, -0.08259985929012537]
[0.24807934161803047, 0.4494992436983859, -0.08436348689846862, -0.0470980810489503, 0.1752790052525378, 0.2961710800172678, -0.27913304209438716, -0.10580853275564839, -0.22695558356083245, 0.4958505710864547, -0.3744545292734539, 0.30754611478998484, -0.38092647874320607, 0.7191881278430905, -0.42759682117738207, -0.49286661480842076, 0.20865817753489058, 0.03726029070829984, 0.45003779316075576, -0.14392977793250028, 0.3127980749581557, -0.31605736046071375, 0.43470273435274387, -0.28398642728268264, 0.12104289811179969, -0.37326774631768334, 0.19480668025655312, -0.18203445790141826, 0.30732294828476303, 0.11387538271140785, -0.01411166043992107, -0.36894329223984534, -0.3321192231686576, -0.2994780579387102, 0.07069494362133066, -0.2992728967110525, -0.4748861388935135, -0.04133717880703691, 0.09970868440921898, 0.20970574834174416, -0.07003238535275025, 0.37707054119680417, 0.2820146583001636, 0.39897262964208824, 0.37342981864601243, 0.01749444454542959, -0.27190031717852703, -0.004147241922095035, 0.37950546996221424, -0.013315081726391509, -0.04142686504060822, -0.3630647674273104, -0.08259985929012537]
[0.24807934161803047, 0.4494992436983859, -0.08436348689846862, -0.0470980810489503, 0.1752790052525378, 0.2961710800172678, -0.27913304209438716, -0.10580853275564839, -0.22695558356083245, 0.4958505710864547, -0.3744545292734539, 0.30754611478998484, -0.38092647874320607, 0.7191881278430905, -0.42759682117738207, -0.49286661480842076, 0.20865817753489058, 0.03726029070829984, 0.45003779316075576, -0.14392977793250028, 0.3127980749581557, -0.31605736046071375, 0.43470273435274387, -0.28398642728268264, 0.12104289811179969, -0.37326774631768334, 0.19480668025655312, -0.18203445790141826, 0.30732294828476303, 0.11387538271140785, -0.01411166043992107, -0.36894329223984534, -0.3321192231686576, -0.2994780579387102, 0.07069494362133066, -0.2992728967110525, -0.4748861388935135, -0.04133717880703691, 0.09970868440921898, 0.20970574834174416, -0.07003238535275025, 0.37707054119680417, 0.2820146583001636, 0.39897262964208824, 0.37342981864601243, 0.01749444454542959, -0.27190031717852703, -0.004147241922095035, 0.37950546996221424, -0.013315081726391509, -0.04142686504060822, -0.35046209820452345, -0.08259985929012537]
[0.24807934161803047, 0.4494992436983859, -0.08436348689846862, -0.0470980810489503, 0.1752790052525378, -0.15575639795250187, -0.27913304209438716, -0.10580853275564839, -0.22695558356083245, 0.4958505710864547, -0.3744545292734539, 0.30754611478998484, 0.29247757379048944, 0.7191881278430905, -0.42759682117738207, -0.49286661480842076, 0.20865817753489058, 0.03726029070829984, 0.45003779316075576, -0.14392977793250028, 0.3127980749581557, -0.31605736046071375, 0.43470273435274387, -0.28398642728268264, 0.12104289811179969, -0.37326774631768334, 0.19480668025655312, -0.18203445790141826, 0.30732294828476303, 0.11387538271140785, -0.01411166043992107, -0.36894329223984534, 0.07778134353465463, -0.2994780579387102, 0.07069494362133066, -0.2992728967110525, -0.4748861388935135, -0.04133717880703691, 0.09970868440921898, 0.20970574834174416, -0.07003238535275025, 0.37707054119680417, 0.2820146583001636, 0.39897262964208824, 0.37342981864601243, 0.01749444454542959, -0.27190031717852703, -0.004147241922095035, 0.37950546996221424, -0.013315081726391509, -0.04142686504060822, -0.3630647674273104, -0.08259985929012537]
[0.24807934161803047, 0.4494992436983859, -0.08436348689846862, -0.0470980810489503, 0.1752790052525378, 0.2961710800172678, -0.27913304209438716, -0.10580853275564839, -0.22695558356083245, 0.4958505710864547, -0.3744545292734539, 0.30754611478998484, 0.29247757379048944, 0.7191881278430905, -0.42759682117738207, -0.49286661480842076, 0.20865817753489058, 0.03726029070829984, 0.45003779316075576, -0.14392977793250028, 0.3127980749581557, -0.31605736046071375, 0.43470273435274387, -0.28398642728268264, 0.12104289811179969, -0.37326774631768334, 0.19480668025655312, -0.18203445790141826, 0.30732294828476303, 0.11387538271140785, -0.01411166043992107, -0.36894329223984534, -0.3321192231686576, -0.2994780579387102, 0.07069494362133066, -0.2992728967110525, -0.4748861388935135, -0.04133717880703691, 0.09970868440921898, 0.20970574834174416, -0.07003238535275025, 0.37707054119680417, 0.2820146583001636, 0.39897262964208824, 0.37342981864601243, 0.01749444454542959, -0.27190031717852703, -0.004147241922095035, 0.37950546996221424, -0.013315081726391509, -0.04142686504060822, -0.35046209820452345, -0.08259985929012537]
[0.24807934161803047, 0.4494992436983859, -0.14284241435935074, -0.0470980810489503, 0.1752790052525378, 0.2961710800172678, -0.27913304209438716, -0.10580853275564839, -0.22695558356083245, 0.4958505710864547, -0.3744545292734539, 0.30754611478998484, 0.29247757379048944, 0.7191881278430905, -0.42759682117738207, -0.49286661480842076, 0.20865817753489058, 0.03726029070829984, 0.45003779316075576, -0.14392977793250028, 0.3127980749581557, -0.31605736046071375, 0.43470273435274387, -0.28398642728268264, 0.12104289811179969, -0.37326774631768334, 0.19480668025655312, -0.18203445790141826, 0.30732294828476303, 0.11387538271140785, -0.01411166043992107, -0.36894329223984534, 0.07778134353465463, -0.2994780579387102, 0.07069494362133066, -0.2992728967110525, -0.4748861388935135, -0.04133717880703691, 0.09970868440921898, 0.20970574834174416, -0.07003238535275025, 0.37707054119680417, 0.2820146583001636, -0.5457645639153114, 0.37342981864601243, 0.01749444454542959, -0.27190031717852703, -0.004147241922095035, 0.37950546996221424, -0.013315081726391509, -0.04142686504060822, -0.35046209820452345, -0.08259985929012537]
[0.24807934161803047, 0.4494992436983859, -0.08436348689846862, -0.0470980810489503, 0.1752790052525378, 0.2961710800172678, -0.27913304209438716, -0.10580853275564839, -0.22695558356083245, 0.4958505710864547, -0.3744545292734539, 0.30754611478998484, -0.38092647874320607, 0.7191881278430905, -0.42759682117738207, -0.49286661480842076, 0.20865817753489058, 0.03726029070829984, 0.45003779316075576, -0.14392977793250028, 0.3127980749581557, -0.31605736046071375, 0.43470273435274387, -0.28398642728268264, 0.12104289811179969, -0.37326774631768334, 0.19480668025655312, -0.18203445790141826, 0.30732294828476303, 0.11387538271140785, -0.01411166043992107, -0.36894329223984534, -0.3321192231686576, -0.2994780579387102, 0.07069494362133066, -0.2992728967110525, -0.4748861388935135, -0.04133717880703691, 0.09970868440921898, 0.20970574834174416, -0.07003238535275025, 0.37707054119680417, 0.2820146583001636, 0.39897262964208824, 0.37342981864601243, 0.01749444454542959, -0.27190031717852703, -0.004147241922095035, 0.37950546996221424, -0.013315081726391509, -0.04142686504060822, -0.35046209820452345, -0.08259985929012537]
[0.24807934161803047, 0.4494992436983859, -0.14284241435935074, -0.0470980810489503, 0.1752790052525378, 0.2961710800172678, -0.27913304209438716, -0.10580853275564839, -0.22695558356083245, 0.4958505710864547, -0.3744545292734539, 0.30754611478998484, 0.29247757379048944, 0.7191881278430905, -0.42759682117738207, -0.49286661480842076, 0.20865817753489058, 0.03726029070829984, 0.45003779316075576, -0.14392977793250028, 0.3127980749581557, -0.31605736046071375, 0.43470273435274387, -0.28398642728268264, 0.12104289811179969, -0.37326774631768334, 0.19480668025655312, -0.18203445790141826, 0.30732294828476303, 0.11387538271140785, -0.01411166043992107, -0.36894329223984534, -0.3321192231686576, -0.2994780579387102, 0.07069494362133066, -0.2992728967110525, -0.4748861388935135, -0.04133717880703691, 0.09970868440921898, 0.20970574834174416, -0.07003238535275025, 0.37707054119680417, 0.2820146583001636, 0.39897262964208824, 0.37342981864601243, 0.01749444454542959, -0.27190031717852703, -0.004147241922095035, 0.37950546996221424, -0.013315081726391509, -0.04142686504060822, -0.3630647674273104, -0.08259985929012537]
[0.24807934161803047, 0.4494992436983859, -0.14284241435935074, -0.0470980810489503, 0.1752790052525378, 0.2961710800172678, -0.27913304209438716, -0.10580853275564839, -0.22695558356083245, 0.4958505710864547, -0.3744545292734539, 0.30754611478998484, 0.29247757379048944, 0.7191881278430905, -0.42759682117738207, -0.49286661480842076, 0.20865817753489058, 0.03726029070829984, 0.45003779316075576, -0.14392977793250028, 0.3127980749581557, -0.31605736046071375, 0.43470273435274387, -0.28398642728268264, 0.12104289811179969, -0.37326774631768334, 0.19480668025655312, -0.18203445790141826, 0.30732294828476303, 0.11387538271140785, -0.01411166043992107, -0.36894329223984534, -0.3321192231686576, -0.2994780579387102, 0.07069494362133066, -0.2992728967110525, -0.4748861388935135, -0.04133717880703691, 0.09970868440921898, 0.20970574834174416, -0.07003238535275025, 0.37707054119680417, 0.2820146583001636, -0.5457645639153114, 0.37342981864601243, 0.01749444454542959, -0.27190031717852703, -0.004147241922095035, 0.37950546996221424, -0.013315081726391509, -0.04142686504060822, -0.35046209820452345, -0.08259985929012537]
[0.24807934161803047, 0.4494992436983859, -0.08436348689846862, -0.0470980810489503, 0.1752790052525378, -0.15575639795250187, -0.27913304209438716, -0.10580853275564839, -0.22695558356083245, 0.4958505710864547, -0.3744545292734539, 0.30754611478998484, 0.29247757379048944, 0.7191881278430905, -0.42759682117738207, -0.49286661480842076, 0.20865817753489058, 0.03726029070829984, 0.45003779316075576, -0.14392977793250028, 0.3127980749581557, -0.31605736046071375, 0.43470273435274387, -0.28398642728268264, 0.12104289811179969, -0.37326774631768334, 0.19480668025655312, -0.18203445790141826, 0.30732294828476303, 0.11387538271140785, -0.01411166043992107, -0.36894329223984534, -0.3321192231686576, -0.2994780579387102, 0.07069494362133066, -0.2992728967110525, -0.4748861388935135, -0.04133717880703691, 0.09970868440921898, 0.20970574834174416, -0.07003238535275025, 0.37707054119680417, 0.2820146583001636, -0.5457645639153114, 0.37342981864601243, 0.01749444454542959, -0.27190031717852703, -0.004147241922095035, 0.37950546996221424, -0.013315081726391509, -0.04142686504060822, -0.3630647674273104, -0.08259985929012537]
[0.24807934161803047, 0.4494992436983859, -0.14284241435935074, -0.06883596766534407, 0.1752790052525378, 0.2961710800172678, -0.27913304209438716, 0.18417239782775574, -0.22695558356083245, 0.4958505710864547, -0.3744545292734539, 0.30754611478998484, -0.38092647874320607, 0.7191881278430905, -0.42759682117738207, -0.49286661480842076, 0.20865817753489058, 0.03726029070829984, 0.45003779316075576, -0.14392977793250028, 0.3127980749581557, -0.31605736046071375, 0.43470273435274387, -0.28398642728268264, 0.12104289811179969, -0.37326774631768334, 0.19480668025655312, -0.2858685128282907, 0.30732294828476303, 0.11387538271140785, -0.01411166043992107, -0.36894329223984534, -0.3321192231686576, -0.12528312588540202, 0.07069494362133066, 0.06978439421915636, -0.4748861388935135, -0.05123149068177723, 0.09970868440921898, 0.20970574834174416, -0.07003238535275025, 0.37707054119680417, 0.2820146583001636, 0.39897262964208824, 0.37342981864601243, 0.01749444454542959, -0.27190031717852703, -0.004147241922095035, 0.37950546996221424, 0.01649772117805879, -0.04142686504060822, -0.35046209820452345, -0.08259985929012537]
[0.24807934161803047, 0.4494992436983859, -0.08436348689846862, -0.0470980810489503, 0.1752790052525378, 0.2961710800172678, -0.27913304209438716, -0.10580853275564839, -0.22695558356083245, 0.4958505710864547, -0.3744545292734539, 0.30754611478998484, -0.38092647874320607, 0.7191881278430905, -0.42759682117738207, -0.49286661480842076, 0.20865817753489058, 0.03726029070829984, 0.45003779316075576, -0.14392977793250028, 0.3127980749581557, -0.31605736046071375, 0.43470273435274387, -0.28398642728268264, 0.12104289811179969, -0.37326774631768334, 0.19480668025655312, -0.18203445790141826, 0.30732294828476303, 0.11387538271140785, -0.01411166043992107, -0.36894329223984534, -0.3321192231686576, -0.2994780579387102, 0.07069494362133066, -0.2992728967110525, -0.4748861388935135, -0.04133717880703691, 0.09970868440921898, 0.20970574834174416, -0.07003238535275025, 0.37707054119680417, 0.2820146583001636, -0.5457645639153114, 0.37342981864601243, 0.01749444454542959, -0.27190031717852703, -0.004147241922095035, 0.37950546996221424, -0.013315081726391509, -0.04142686504060822, -0.35046209820452345, -0.08259985929012537]
[0.24807934161803047, 0.4494992436983859, -0.14284241435935074, -0.0470980810489503, 0.1752790052525378, -0.15575639795250187, -0.27913304209438716, -0.10580853275564839, -0.22695558356083245, 0.4958505710864547, -0.3744545292734539, 0.30754611478998484, -0.38092647874320607, 0.7191881278430905, -0.42759682117738207, -0.49286661480842076, 0.20865817753489058, 0.03726029070829984, 0.45003779316075576, -0.14392977793250028, 0.3127980749581557, -0.31605736046071375, 0.21038615152394324, -0.28398642728268264, 0.12104289811179969, -0.37326774631768334, 0.19480668025655312, -0.18203445790141826, 0.30732294828476303, 0.11387538271140785, -0.01411166043992107, -0.36894329223984534, -0.3321192231686576, -0.2994780579387102, 0.07069494362133066, -0.2992728967110525, -0.4748861388935135, -0.04133717880703691, 0.09970868440921898, 0.20970574834174416, -0.07003238535275025, 0.37707054119680417, 0.2820146583001636, 0.39897262964208824, 0.37342981864601243, 0.01749444454542959, -0.27190031717852703, -0.004147241922095035, 0.37950546996221424, -0.013315081726391509, -0.04142686504060822, -0.35046209820452345, -0.08259985929012537]
[0.24807934161803047, 0.4494992436983859, -0.14284241435935074, -0.0470980810489503, 0.1752790052525378, -0.15575639795250187, -0.27913304209438716, -0.10580853275564839, -0.22695558356083245, 0.4958505710864547, -0.3744545292734539, 0.30754611478998484, 0.29247757379048944, 0.7191881278430905, -0.42759682117738207, -0.49286661480842076, 0.20865817753489058, 0.03726029070829984, 0.45003779316075576, -0.14392977793250028, 0.3127980749581557, -0.31605736046071375, 0.43470273435274387, -0.28398642728268264, 0.12104289811179969, -0.37326774631768334, 0.19480668025655312, -0.18203445790141826, 0.30732294828476303, 0.11387538271140785, -0.01411166043992107, -0.36894329223984534, 0.07778134353465463, -0.2994780579387102, 0.07069494362133066, -0.2992728967110525, -0.4748861388935135, -0.04133717880703691, 0.09970868440921898, 0.20970574834174416, -0.07003238535275025, 0.37707054119680417, 0.2820146583001636, -0.5457645639153114, 0.37342981864601243, 0.01749444454542959, -0.27190031717852703, -0.004147241922095035, 0.37950546996221424, -0.013315081726391509, -0.04142686504060822, -0.35046209820452345, -0.08259985929012537]
[0.24807934161803047, 0.4494992436983859, -0.14284241435935074, -0.0470980810489503, 0.1752790052525378, 0.2961710800172678, -0.27913304209438716, -0.10580853275564839, -0.22695558356083245, 0.4958505710864547, -0.3744545292734539, 0.30754611478998484, -0.38092647874320607, 0.7191881278430905, -0.42759682117738207, -0.49286661480842076, 0.20865817753489058, 0.03726029070829984, 0.45003779316075576, -0.14392977793250028, 0.3127980749581557, -0.31605736046071375, 0.43470273435274387, -0.28398642728268264, 0.12104289811179969, -0.37326774631768334, 0.19480668025655312, -0.18203445790141826, 0.30732294828476303, 0.11387538271140785, -0.01411166043992107, -0.36894329223984534, -0.3321192231686576, -0.2994780579387102, 0.07069494362133066, -0.2992728967110525, -0.4748861388935135, -0.04133717880703691, 0.09970868440921898, 0.20970574834174416, -0.07003238535275025, 0.37707054119680417, 0.2820146583001636, 0.39897262964208824, 0.37342981864601243, 0.01749444454542959, -0.27190031717852703, -0.004147241922095035, 0.37950546996221424, -0.013315081726391509, -0.04142686504060822, -0.35046209820452345, -0.08259985929012537]
[0.24807934161803047, 0.4494992436983859, -0.08436348689846862, -0.0470980810489503, 0.1752790052525378, -0.15575639795250187, -0.27913304209438716, -0.10580853275564839, -0.22695558356083245, 0.4958505710864547, -0.3744545292734539, 0.30754611478998484, 0.29247757379048944, 0.7191881278430905, -0.42759682117738207, -0.49286661480842076, 0.20865817753489058, 0.03726029070829984, 0.45003779316075576, -0.14392977793250028, 0.3127980749581557, -0.31605736046071375, 0.21038615152394324, -0.28398642728268264, 0.12104289811179969, -0.37326774631768334, 0.19480668025655312, -0.18203445790141826, 0.30732294828476303, 0.11387538271140785, -0.01411166043992107, -0.36894329223984534, -0.3321192231686576, -0.2994780579387102, 0.07069494362133066, -0.2992728967110525, -0.4748861388935135, -0.04133717880703691, 0.09970868440921898, 0.20970574834174416, -0.07003238535275025, 0.37707054119680417, -0.37468455970736825, 0.39897262964208824, 0.37342981864601243, 0.01749444454542959, -0.27190031717852703, -0.004147241922095035, 0.37950546996221424, -0.013315081726391509, -0.04142686504060822, -0.35046209820452345, -0.08259985929012537]
[0.24807934161803047, 0.4494992436983859, -0.14284241435935074, -0.0470980810489503, 0.1752790052525378, -0.15575639795250187, -0.27913304209438716, -0.10580853275564839, -0.22695558356083245, 0.4958505710864547, -0.3744545292734539, 0.30754611478998484, 0.29247757379048944, 0.7191881278430905, -0.42759682117738207, -0.49286661480842076, 0.20865817753489058, 0.03726029070829984, 0.45003779316075576, -0.14392977793250028, 0.3127980749581557, -0.31605736046071375, 0.43470273435274387, -0.28398642728268264, 0.12104289811179969, -0.37326774631768334, 0.19480668025655312, -0.18203445790141826, 0.30732294828476303, 0.11387538271140785, -0.01411166043992107, -0.36894329223984534, -0.3321192231686576, -0.2994780579387102, 0.07069494362133066, -0.2992728967110525, -0.4748861388935135, -0.04133717880703691, 0.09970868440921898, 0.20970574834174416, -0.07003238535275025, 0.37707054119680417, 0.2820146583001636, 0.39897262964208824, 0.37342981864601243, 0.01749444454542959, -0.27190031717852703, -0.004147241922095035, 0.37950546996221424, -0.013315081726391509, -0.04142686504060822, -0.35046209820452345, -0.08259985929012537]
[0.24807934161803047, 0.4494992436983859, -0.14284241435935074, -0.0470980810489503, 0.1752790052525378, 0.2961710800172678, -0.27913304209438716, -0.10580853275564839, -0.22695558356083245, 0.4958505710864547, -0.3744545292734539, 0.30754611478998484, -0.38092647874320607, 0.7191881278430905, -0.42759682117738207, -0.49286661480842076, 0.20865817753489058, 0.03726029070829984, 0.45003779316075576, -0.14392977793250028, 0.3127980749581557, -0.31605736046071375, 0.43470273435274387, -0.28398642728268264, 0.12104289811179969, -0.37326774631768334, 0.19480668025655312, -0.18203445790141826, 0.30732294828476303, 0.11387538271140785, -0.01411166043992107, -0.36894329223984534, -0.3321192231686576, -0.2994780579387102, 0.07069494362133066, -0.2992728967110525, -0.4748861388935135, -0.04133717880703691, 0.09970868440921898, 0.20970574834174416, -0.07003238535275025, 0.37707054119680417, 0.2820146583001636, 0.39897262964208824, 0.37342981864601243, 0.01749444454542959, -0.27190031717852703, -0.004147241922095035, 0.37950546996221424, -0.013315081726391509, -0.04142686504060822, -0.35046209820452345, -0.08259985929012537]
[0.24807934161803047, 0.4494992436983859, -0.08436348689846862, -0.0470980810489503, 0.1752790052525378, -0.15575639795250187, -0.27913304209438716, -0.10580853275564839, -0.22695558356083245, 0.4958505710864547, -0.3744545292734539, 0.30754611478998484, 0.29247757379048944, 0.7191881278430905, -0.42759682117738207, -0.49286661480842076, 0.20865817753489058, 0.03726029070829984, 0.45003779316075576, -0.14392977793250028, 0.3127980749581557, -0.31605736046071375, 0.43470273435274387, -0.28398642728268264, 0.12104289811179969, -0.37326774631768334, 0.19480668025655312, -0.18203445790141826, 0.30732294828476303, 0.11387538271140785, -0.01411166043992107, -0.36894329223984534, -0.3321192231686576, -0.2994780579387102, 0.07069494362133066, -0.2992728967110525, -0.4748861388935135, -0.07617389520229643, 0.09970868440921898, 0.20970574834174416, -0.07003238535275025, 0.37707054119680417, 0.2820146583001636, 0.39897262964208824, 0.37342981864601243, 0.01749444454542959, -0.27190031717852703, -0.004147241922095035, 0.37950546996221424, -0.013315081726391509, -0.04142686504060822, -0.35046209820452345, -0.08259985929012537]
[0.24807934161803047, 0.4494992436983859, -0.08436348689846862, -0.0470980810489503, 0.1752790052525378, 0.2961710800172678, -0.27913304209438716, -0.10580853275564839, -0.22695558356083245, 0.4958505710864547, -0.3744545292734539, 0.30754611478998484, 0.29247757379048944, 0.7191881278430905, -0.42759682117738207, -0.49286661480842076, 0.20865817753489058, 0.03726029070829984, 0.45003779316075576, -0.14392977793250028, 0.3127980749581557, -0.31605736046071375, 0.43470273435274387, -0.28398642728268264, 0.12104289811179969, -0.37326774631768334, 0.19480668025655312, -0.18203445790141826, 0.30732294828476303, 0.11387538271140785, -0.01411166043992107, -0.36894329223984534, -0.3321192231686576, -0.2994780579387102, 0.07069494362133066, -0.2992728967110525, -0.4748861388935135, -0.04133717880703691, 0.09970868440921898, 0.20970574834174416, -0.07003238535275025, 0.37707054119680417, 0.2820146583001636, 0.39897262964208824, 0.37342981864601243, 0.01749444454542959, -0.27190031717852703, -0.004147241922095035, 0.37950546996221424, -0.013315081726391509, -0.04142686504060822, -0.3630647674273104, -0.08259985929012537]
[0.24807934161803047, 0.4494992436983859, -0.08436348689846862, -0.0470980810489503, 0.1752790052525378, 0.2961710800172678, -0.27913304209438716, -0.10580853275564839, -0.22695558356083245, 0.4958505710864547, -0.3744545292734539, 0.30754611478998484, -0.38092647874320607, 0.7191881278430905, -0.42759682117738207, -0.49286661480842076, 0.20865817753489058, 0.03726029070829984, 0.45003779316075576, -0.14392977793250028, 0.3127980749581557, -0.31605736046071375, 0.43470273435274387, -0.28398642728268264, 0.12104289811179969, -0.37326774631768334, 0.19480668025655312, -0.18203445790141826, 0.30732294828476303, 0.11387538271140785, -0.01411166043992107, -0.36894329223984534, -0.3321192231686576, -0.2994780579387102, 0.07069494362133066, -0.2992728967110525, -0.4748861388935135, -0.04133717880703691, 0.09970868440921898, 0.20970574834174416, -0.07003238535275025, 0.37707054119680417, 0.2820146583001636, 0.39897262964208824, 0.37342981864601243, 0.01749444454542959, -0.27190031717852703, -0.004147241922095035, 0.37950546996221424, -0.013315081726391509, -0.04142686504060822, -0.35046209820452345, -0.08259985929012537]
[0.24807934161803047, 0.4494992436983859, -0.14284241435935074, -0.0470980810489503, 0.1752790052525378, -0.15575639795250187, -0.27913304209438716, -0.10580853275564839, -0.22695558356083245, 0.4958505710864547, -0.3744545292734539, 0.30754611478998484, -0.38092647874320607, 0.7191881278430905, -0.42759682117738207, -0.49286661480842076, 0.20865817753489058, 0.03726029070829984, 0.45003779316075576, -0.14392977793250028, 0.3127980749581557, -0.31605736046071375, 0.43470273435274387, -0.28398642728268264, 0.12104289811179969, -0.37326774631768334, 0.19480668025655312, -0.18203445790141826, 0.30732294828476303, 0.11387538271140785, -0.01411166043992107, -0.36894329223984534, -0.3321192231686576, -0.2994780579387102, 0.07069494362133066, -0.2992728967110525, -0.4748861388935135, -0.04133717880703691, 0.09970868440921898, 0.20970574834174416, -0.07003238535275025, 0.37707054119680417, 0.2820146583001636, 0.39897262964208824, 0.37342981864601243, 0.01749444454542959, -0.27190031717852703, -0.004147241922095035, 0.37950546996221424, -0.013315081726391509, -0.04142686504060822, -0.35046209820452345, -0.08259985929012537]
[0.24807934161803047, 0.4494992436983859, -0.14284241435935074, -0.0470980810489503, 0.1752790052525378, 0.2961710800172678, -0.27913304209438716, -0.10580853275564839, -0.22695558356083245, 0.4958505710864547, -0.3744545292734539, 0.30754611478998484, -0.38092647874320607, 0.7191881278430905, -0.42759682117738207, -0.49286661480842076, 0.20865817753489058, 0.03726029070829984, 0.45003779316075576, -0.14392977793250028, 0.3127980749581557, -0.31605736046071375, 0.43470273435274387, -0.28398642728268264, 0.12104289811179969, -0.37326774631768334, 0.19480668025655312, -0.18203445790141826, 0.30732294828476303, 0.11387538271140785, -0.01411166043992107, -0.36894329223984534, -0.3321192231686576, -0.2994780579387102, 0.07069494362133066, -0.2992728967110525, -0.4748861388935135, -0.04133717880703691, 0.09970868440921898, 0.20970574834174416, -0.07003238535275025, 0.37707054119680417, 0.2820146583001636, 0.39897262964208824, 0.37342981864601243, 0.01749444454542959, -0.27190031717852703, -0.004147241922095035, 0.37950546996221424, -0.013315081726391509, -0.04142686504060822, -0.3630647674273104, -0.08259985929012537]
[0.24807934161803047, 0.4494992436983859, -0.08436348689846862, -0.0470980810489503, 0.1752790052525378, 0.2961710800172678, -0.27913304209438716, -0.10580853275564839, -0.22695558356083245, 0.4958505710864547, -0.3744545292734539, 0.30754611478998484, -0.38092647874320607, 0.7191881278430905, -0.42759682117738207, -0.49286661480842076, 0.20865817753489058, 0.03726029070829984, 0.45003779316075576, -0.14392977793250028, 0.3127980749581557, -0.31605736046071375, 0.43470273435274387, -0.28398642728268264, 0.12104289811179969, -0.37326774631768334, 0.19480668025655312, -0.18203445790141826, 0.30732294828476303, 0.11387538271140785, -0.01411166043992107, -0.36894329223984534, -0.3321192231686576, -0.2994780579387102, 0.07069494362133066, -0.2992728967110525, -0.4748861388935135, -0.04133717880703691, 0.09970868440921898, 0.20970574834174416, -0.11979187349964221, 0.37707054119680417, 0.2820146583001636, 0.39897262964208824, 0.37342981864601243, 0.01749444454542959, -0.27190031717852703, -0.004147241922095035, 0.37950546996221424, -0.013315081726391509, -0.04142686504060822, -0.35046209820452345, -0.08259985929012537]
[0.24807934161803047, 0.4494992436983859, -0.08436348689846862, -0.0470980810489503, 0.1752790052525378, 0.2961710800172678, -0.27913304209438716, -0.10580853275564839, -0.22695558356083245, 0.4958505710864547, -0.3744545292734539, 0.30754611478998484, 0.29247757379048944, 0.7191881278430905, -0.42759682117738207, -0.49286661480842076, 0.20865817753489058, 0.03726029070829984, 0.45003779316075576, -0.14392977793250028, 0.3127980749581557, -0.31605736046071375, 0.43470273435274387, -0.28398642728268264, 0.12104289811179969, -0.37326774631768334, 0.19480668025655312, -0.18203445790141826, 0.30732294828476303, 0.11387538271140785, -0.01411166043992107, -0.36894329223984534, -0.3321192231686576, -0.2994780579387102, 0.07069494362133066, -0.2992728967110525, -0.4748861388935135, -0.04133717880703691, 0.09970868440921898, 0.20970574834174416, -0.07003238535275025, 0.37707054119680417, -0.37468455970736825, -0.5457645639153114, 0.37342981864601243, 0.01749444454542959, -0.27190031717852703, -0.004147241922095035, 0.37950546996221424, -0.013315081726391509, -0.04142686504060822, -0.35046209820452345, -0.08259985929012537]
[0.24807934161803047, 0.4494992436983859, -0.14284241435935074, -0.0470980810489503, 0.1752790052525378, 0.2961710800172678, -0.27913304209438716, -0.10580853275564839, -0.22695558356083245, 0.4958505710864547, -0.3744545292734539, 0.30754611478998484, 0.29247757379048944, 0.7191881278430905, -0.42759682117738207, -0.49286661480842076, 0.20865817753489058, 0.03726029070829984, 0.45003779316075576, -0.14392977793250028, 0.3127980749581557, -0.31605736046071375, 0.21038615152394324, -0.28398642728268264, 0.12104289811179969, -0.37326774631768334, 0.19480668025655312, -0.18203445790141826, 0.30732294828476303, 0.11387538271140785, -0.01411166043992107, -0.36894329223984534, 0.07778134353465463, -0.2994780579387102, 0.07069494362133066, -0.2992728967110525, -0.4748861388935135, -0.04133717880703691, 0.09970868440921898, 0.20970574834174416, -0.07003238535275025, 0.37707054119680417, 0.2820146583001636, 0.39897262964208824, 0.37342981864601243, 0.01749444454542959, -0.27190031717852703, -0.004147241922095035, 0.37950546996221424, -0.013315081726391509, -0.04142686504060822, -0.35046209820452345, -0.08259985929012537]
[0.24807934161803047, 0.4494992436983859, -0.08436348689846862, -0.0470980810489503, 0.1752790052525378, 0.2961710800172678, -0.27913304209438716, -0.10580853275564839, -0.22695558356083245, 0.4958505710864547, -0.3744545292734539, 0.30754611478998484, -0.38092647874320607, 0.7191881278430905, -0.42759682117738207, -0.49286661480842076, 0.20865817753489058, 0.03726029070829984, 0.45003779316075576, -0.14392977793250028, 0.3127980749581557, -0.31605736046071375, 0.43470273435274387, -0.28398642728268264, 0.12104289811179969, -0.37326774631768334, 0.19480668025655312, -0.18203445790141826, 0.30732294828476303, 0.11387538271140785, -0.01411166043992107, -0.36894329223984534, -0.3321192231686576, -0.2994780579387102, 0.07069494362133066, -0.2992728967110525, -0.4748861388935135, -0.04133717880703691, 0.09970868440921898, 0.20970574834174416, -0.07003238535275025, 0.37707054119680417, 0.2820146583001636, 0.39897262964208824, 0.37342981864601243, 0.01749444454542959, -0.27190031717852703, -0.004147241922095035, 0.37950546996221424, -0.013315081726391509, -0.04142686504060822, -0.35046209820452345, -0.08259985929012537]
[0.24807934161803047, 0.4494992436983859, -0.08436348689846862, -0.0470980810489503, 0.1752790052525378, -0.15575639795250187, -0.27913304209438716, -0.10580853275564839, -0.22695558356083245, 0.4958505710864547, -0.3744545292734539, 0.30754611478998484, 0.29247757379048944, 0.7191881278430905, -0.42759682117738207, -0.49286661480842076, 0.20865817753489058, 0.03726029070829984, 0.45003779316075576, -0.14392977793250028, 0.3127980749581557, -0.31605736046071375, 0.43470273435274387, -0.28398642728268264, 0.12104289811179969, -0.37326774631768334, 0.19480668025655312, -0.18203445790141826, 0.30732294828476303, 0.11387538271140785, -0.01411166043992107, -0.36894329223984534, -0.3321192231686576, -0.2994780579387102, 0.07069494362133066, -0.2992728967110525, -0.4748861388935135, -0.04133717880703691, 0.09970868440921898, 0.20970574834174416, -0.07003238535275025, 0.37707054119680417, 0.2820146583001636, 0.39897262964208824, 0.37342981864601243, 0.01749444454542959, -0.27190031717852703, -0.004147241922095035, 0.37950546996221424, -0.013315081726391509, -0.04142686504060822, -0.35046209820452345, -0.08259985929012537]
[0.24807934161803047, 0.4494992436983859, -0.08436348689846862, -0.0470980810489503, 0.1752790052525378, -0.15575639795250187, -0.27913304209438716, -0.10580853275564839, -0.22695558356083245, 0.4958505710864547, -0.3744545292734539, 0.30754611478998484, 0.29247757379048944, 0.7191881278430905, -0.42759682117738207, -0.49286661480842076, 0.20865817753489058, 0.03726029070829984, 0.45003779316075576, -0.14392977793250028, 0.3127980749581557, -0.31605736046071375, 0.43470273435274387, -0.28398642728268264, 0.12104289811179969, -0.37326774631768334, 0.19480668025655312, -0.18203445790141826, 0.30732294828476303, 0.11387538271140785, -0.01411166043992107, -0.2069659491964236, -0.3321192231686576, -0.2994780579387102, 0.07069494362133066, -0.2992728967110525, -0.4748861388935135, -0.04133717880703691, 0.09970868440921898, 0.20970574834174416, -0.07003238535275025, 0.37707054119680417, 0.2820146583001636, 0.39897262964208824, 0.37342981864601243, 0.01749444454542959, -0.27190031717852703, -0.004147241922095035, 0.37950546996221424, -0.013315081726391509, -0.01410911914533761, -0.35046209820452345, -0.08259985929012537]
[0.24807934161803047, 0.4494992436983859, -0.08436348689846862, -0.0470980810489503, 0.1752790052525378, 0.2961710800172678, -0.27913304209438716, -0.10580853275564839, -0.22695558356083245, 0.4958505710864547, -0.3744545292734539, 0.30754611478998484, 0.29247757379048944, 0.7191881278430905, -0.42759682117738207, -0.49286661480842076, 0.20865817753489058, 0.03726029070829984, 0.45003779316075576, -0.14392977793250028, 0.3127980749581557, -0.31605736046071375, 0.43470273435274387, -0.28398642728268264, 0.12104289811179969, -0.37326774631768334, 0.19480668025655312, -0.18203445790141826, 0.30732294828476303, 0.11387538271140785, -0.01411166043992107, -0.36894329223984534, -0.3321192231686576, -0.2994780579387102, 0.07069494362133066, -0.2992728967110525, -0.4748861388935135, -0.04133717880703691, 0.09970868440921898, 0.20970574834174416, -0.07003238535275025, 0.37707054119680417, 0.2820146583001636, 0.39897262964208824, 0.37342981864601243, 0.01749444454542959, -0.27190031717852703, -0.004147241922095035, 0.37950546996221424, -0.013315081726391509, -0.04142686504060822, -0.3630647674273104, -0.08259985929012537]
[0.24807934161803047, 0.4494992436983859, -0.08436348689846862, -0.0470980810489503, 0.1752790052525378, 0.2961710800172678, -0.27913304209438716, -0.10580853275564839, -0.22695558356083245, 0.4958505710864547, -0.3744545292734539, 0.30754611478998484, -0.38092647874320607, 0.7191881278430905, -0.42759682117738207, -0.49286661480842076, 0.20865817753489058, 0.03726029070829984, 0.45003779316075576, -0.14392977793250028, 0.3127980749581557, -0.31605736046071375, 0.43470273435274387, -0.28398642728268264, 0.12104289811179969, -0.37326774631768334, 0.19480668025655312, -0.18203445790141826, 0.30732294828476303, 0.11387538271140785, -0.01411166043992107, -0.36894329223984534, -0.3321192231686576, -0.2994780579387102, 0.07069494362133066, -0.2992728967110525, -0.4748861388935135, -0.07617389520229643, 0.09970868440921898, 0.20970574834174416, -0.07003238535275025, 0.37707054119680417, -0.37468455970736825, 0.39897262964208824, 0.37342981864601243, 0.01749444454542959, -0.27190031717852703, -0.004147241922095035, 0.37950546996221424, -0.013315081726391509, -0.04142686504060822, -0.3630647674273104, -0.08259985929012537]
[0.24807934161803047, 0.4494992436983859, -0.08436348689846862, -0.0470980810489503, 0.1752790052525378, 0.2961710800172678, -0.27913304209438716, -0.10580853275564839, -0.22695558356083245, 0.4958505710864547, -0.3744545292734539, 0.30754611478998484, -0.38092647874320607, 0.7191881278430905, -0.42759682117738207, -0.49286661480842076, 0.20865817753489058, 0.03726029070829984, 0.45003779316075576, -0.14392977793250028, 0.3127980749581557, -0.31605736046071375, 0.43470273435274387, -0.28398642728268264, 0.12104289811179969, -0.37326774631768334, 0.19480668025655312, -0.18203445790141826, 0.30732294828476303, 0.11387538271140785, -0.01411166043992107, -0.36894329223984534, -0.3321192231686576, -0.2994780579387102, 0.07069494362133066, -0.2992728967110525, -0.4748861388935135, -0.04133717880703691, 0.09970868440921898, 0.20970574834174416, -0.07003238535275025, 0.37707054119680417, -0.37468455970736825, 0.39897262964208824, 0.37342981864601243, 0.01749444454542959, -0.27190031717852703, -0.004147241922095035, 0.37950546996221424, -0.013315081726391509, -0.04142686504060822, -0.35046209820452345, -0.08259985929012537]
[0.24807934161803047, 0.4494992436983859, -0.14284241435935074, -0.0470980810489503, 0.1752790052525378, 0.2961710800172678, -0.27913304209438716, -0.10580853275564839, -0.22695558356083245, 0.4958505710864547, -0.3744545292734539, 0.30754611478998484, -0.38092647874320607, 0.7191881278430905, -0.42759682117738207, -0.49286661480842076, 0.20865817753489058, 0.03726029070829984, 0.45003779316075576, -0.14392977793250028, 0.3127980749581557, -0.31605736046071375, 0.43470273435274387, -0.28398642728268264, 0.12104289811179969, -0.37326774631768334, 0.19480668025655312, -0.18203445790141826, 0.30732294828476303, 0.11387538271140785, -0.01411166043992107, -0.36894329223984534, 0.07778134353465463, -0.2994780579387102, 0.07069494362133066, -0.2992728967110525, -0.4748861388935135, -0.04133717880703691, 0.09970868440921898, 0.20970574834174416, -0.07003238535275025, 0.37707054119680417, 0.2820146583001636, 0.39897262964208824, 0.37342981864601243, 0.01749444454542959, -0.27190031717852703, -0.004147241922095035, 0.37950546996221424, -0.013315081726391509, -0.04142686504060822, -0.35046209820452345, -0.08259985929012537]
[0.24807934161803047, 0.4494992436983859, -0.08436348689846862, -0.0470980810489503, 0.1752790052525378, 0.2961710800172678, -0.27913304209438716, -0.10580853275564839, -0.22695558356083245, 0.4958505710864547, -0.3744545292734539, 0.30754611478998484, 0.29247757379048944, 0.7191881278430905, -0.42759682117738207, -0.49286661480842076, 0.20865817753489058, 0.03726029070829984, 0.45003779316075576, -0.14392977793250028, 0.3127980749581557, -0.31605736046071375, 0.43470273435274387, -0.28398642728268264, 0.12104289811179969, -0.37326774631768334, 0.19480668025655312, -0.18203445790141826, 0.30732294828476303, 0.11387538271140785, -0.01411166043992107, -0.36894329223984534, -0.3321192231686576, -0.2994780579387102, 0.07069494362133066, -0.2992728967110525, -0.4748861388935135, -0.04133717880703691, 0.09970868440921898, 0.20970574834174416, -0.07003238535275025, 0.37707054119680417, 0.2820146583001636, 0.39897262964208824, 0.37342981864601243, 0.01749444454542959, -0.27190031717852703, -0.004147241922095035, 0.37950546996221424, -0.013315081726391509, -0.04142686504060822, -0.35046209820452345, -0.08259985929012537]
[0.24807934161803047, 0.4494992436983859, -0.08436348689846862, -0.0470980810489503, 0.1752790052525378, 0.2961710800172678, -0.27913304209438716, -0.10580853275564839, -0.22695558356083245, 0.4958505710864547, -0.3744545292734539, 0.30754611478998484, -0.38092647874320607, 0.7191881278430905, -0.42759682117738207, -0.49286661480842076, 0.20865817753489058, 0.03726029070829984, 0.45003779316075576, -0.14392977793250028, 0.3127980749581557, -0.31605736046071375, 0.21038615152394324, -0.28398642728268264, -0.1044195562281837, -0.37326774631768334, 0.19480668025655312, -0.18203445790141826, 0.30732294828476303, 0.11387538271140785, -0.01411166043992107, -0.36894329223984534, -0.3321192231686576, -0.2994780579387102, 0.07069494362133066, -0.2992728967110525, -0.4748861388935135, -0.04133717880703691, 0.09970868440921898, 0.20970574834174416, -0.07003238535275025, 0.37707054119680417, -0.37468455970736825, 0.39897262964208824, 0.37342981864601243, 0.01749444454542959, -0.27190031717852703, -0.004147241922095035, 0.37950546996221424, -0.013315081726391509, -0.04142686504060822, -0.35046209820452345, -0.08259985929012537]
[0.24807934161803047, 0.4494992436983859, -0.08436348689846862, -0.0470980810489503, 0.1752790052525378, -0.15575639795250187, -0.27913304209438716, -0.10580853275564839, -0.22695558356083245, 0.4958505710864547, -0.3744545292734539, 0.30754611478998484, 0.29247757379048944, 0.7191881278430905, -0.42759682117738207, -0.49286661480842076, 0.20865817753489058, 0.03726029070829984, 0.45003779316075576, -0.14392977793250028, 0.3127980749581557, -0.31605736046071375, 0.21038615152394324, -0.28398642728268264, 0.12104289811179969, -0.37326774631768334, 0.19480668025655312, -0.18203445790141826, 0.30732294828476303, 0.11387538271140785, -0.01411166043992107, -0.36894329223984534, -0.3321192231686576, -0.2994780579387102, 0.07069494362133066, -0.2992728967110525, -0.4748861388935135, -0.04133717880703691, 0.09970868440921898, 0.20970574834174416, -0.07003238535275025, 0.37707054119680417, 0.2820146583001636, 0.39897262964208824, 0.37342981864601243, 0.01749444454542959, -0.27190031717852703, -0.004147241922095035, 0.37950546996221424, -0.013315081726391509, -0.04142686504060822, -0.35046209820452345, -0.08259985929012537]
[0.24807934161803047, 0.4494992436983859, -0.08436348689846862, -0.0470980810489503, 0.1752790052525378, 0.2961710800172678, -0.27913304209438716, -0.10580853275564839, -0.22695558356083245, 0.4958505710864547, -0.3744545292734539, 0.30754611478998484, -0.38092647874320607, 0.7191881278430905, -0.42759682117738207, -0.49286661480842076, 0.20865817753489058, 0.03726029070829984, 0.45003779316075576, -0.14392977793250028, 0.3127980749581557, -0.31605736046071375, 0.43470273435274387, -0.28398642728268264, 0.12104289811179969, -0.37326774631768334, 0.19480668025655312, -0.18203445790141826, 0.30732294828476303, 0.11387538271140785, -0.01411166043992107, -0.36894329223984534, -0.3321192231686576, -0.2994780579387102, 0.07069494362133066, -0.2992728967110525, -0.4748861388935135, -0.07617389520229643, 0.09970868440921898, 0.20970574834174416, -0.07003238535275025, 0.37707054119680417, -0.37468455970736825, 0.39897262964208824, 0.37342981864601243, 0.01749444454542959, -0.27190031717852703, -0.004147241922095035, 0.37950546996221424, -0.013315081726391509, -0.04142686504060822, -0.35046209820452345, -0.08259985929012537]
[0.24807934161803047, 0.4494992436983859, -0.14284241435935074, -0.0470980810489503, 0.1752790052525378, 0.2961710800172678, -0.27913304209438716, -0.10580853275564839, -0.22695558356083245, 0.4958505710864547, -0.3744545292734539, 0.30754611478998484, 0.29247757379048944, 0.7191881278430905, -0.42759682117738207, -0.49286661480842076, 0.20865817753489058, 0.03726029070829984, 0.45003779316075576, -0.14392977793250028, 0.3127980749581557, -0.31605736046071375, 0.43470273435274387, -0.28398642728268264, 0.12104289811179969, -0.37326774631768334, 0.19480668025655312, -0.18203445790141826, 0.30732294828476303, 0.11387538271140785, -0.01411166043992107, -0.36894329223984534, 0.07778134353465463, -0.2994780579387102, 0.07069494362133066, -0.2992728967110525, -0.4748861388935135, -0.04133717880703691, 0.09970868440921898, 0.20970574834174416, -0.07003238535275025, 0.37707054119680417, 0.2820146583001636, -0.5457645639153114, 0.37342981864601243, 0.01749444454542959, -0.27190031717852703, -0.004147241922095035, 0.37950546996221424, -0.013315081726391509, -0.04142686504060822, -0.35046209820452345, -0.08259985929012537]
